digraph Tree {
node [shape=box, style="filled, rounded", color="black", fontname="helvetica"] ;
edge [fontname="helvetica"] ;
0 [label="bedrooms_model <= 2.5\nsquared_error = 13436060978.296\nsamples = 18415\nvalue = 401563.084", fillcolor="#efb387"] ;
1 [label="bedrooms_model <= 1.5\nsquared_error = 12497978254.776\nsamples = 14301\nvalue = 376809.336", fillcolor="#f1b991"] ;
0 -> 1 [labeldistance=2.5, labelangle=45, headlabel="True"] ;
2 [label="coarse_compass_direction_W <= 0.5\nsquared_error = 11626868086.94\nsamples = 6305\nvalue = 341648.231", fillcolor="#f2c29e"] ;
1 -> 2 ;
3 [label="coarse_compass_direction_SW <= 0.5\nsquared_error = 10803681090.925\nsamples = 5441\nvalue = 329211.436", fillcolor="#f3c5a3"] ;
2 -> 3 ;
4 [label="borough_name_Hackney <= 0.5\nsquared_error = 9544203311.612\nsamples = 4687\nvalue = 316074.608", fillcolor="#f4c8a8"] ;
3 -> 4 ;
5 [label="borough_name_Tower Hamlets <= 0.5\nsquared_error = 8685412496.067\nsamples = 4309\nvalue = 307189.631", fillcolor="#f4caac"] ;
4 -> 5 ;
6 [label="coarse_compass_direction_NW <= 0.5\nsquared_error = 7695184858.494\nsamples = 3817\nvalue = 297723.642", fillcolor="#f5cdb0"] ;
5 -> 6 ;
7 [label="coarse_compass_direction_N <= 0.5\nsquared_error = 6764022368.14\nsamples = 3514\nvalue = 289794.303", fillcolor="#f5ceb3"] ;
6 -> 7 ;
8 [label="coarse_compass_direction_EC <= 0.5\nsquared_error = 5554893013.341\nsamples = 2908\nvalue = 277408.587", fillcolor="#f6d2b8"] ;
7 -> 8 ;
9 [label="analyticsProperty.imageCount <= 11.5\nsquared_error = 4807355367.519\nsamples = 2865\nvalue = 275202.87", fillcolor="#f6d2b9"] ;
8 -> 9 ;
10 [label="location.longitude <= 0.077\nsquared_error = 4312692990.659\nsamples = 1949\nvalue = 263812.306", fillcolor="#f6d5bd"] ;
9 -> 10 ;
11 [label="location.latitude <= 51.385\nsquared_error = 4503417445.849\nsamples = 1677\nvalue = 269933.047", fillcolor="#f6d3bb"] ;
10 -> 11 ;
12 [label="squared_error = 2914354582.666\nsamples = 271\nvalue = 231721.565", fillcolor="#f8ddca"] ;
11 -> 12 ;
13 [label="squared_error = 4474026587.58\nsamples = 1406\nvalue = 277298.134", fillcolor="#f6d2b8"] ;
11 -> 13 ;
14 [label="tenure.tenureType_FREEHOLD <= 0.5\nsquared_error = 1481727244.709\nsamples = 272\nvalue = 226075.235", fillcolor="#f8decc"] ;
10 -> 14 ;
15 [label="squared_error = 1326570858.724\nsamples = 255\nvalue = 223492.035", fillcolor="#f8dfcd"] ;
14 -> 15 ;
16 [label="squared_error = 2207571696.886\nsamples = 17\nvalue = 264823.235", fillcolor="#f6d5bd"] ;
14 -> 16 ;
17 [label="location.latitude <= 51.373\nsquared_error = 4996415400.727\nsamples = 916\nvalue = 299438.906", fillcolor="#f4ccaf"] ;
9 -> 17 ;
18 [label="analyticsProperty.propertyType_Flats / Apartments <= 0.5\nsquared_error = 3672994128.858\nsamples = 77\nvalue = 244155.195", fillcolor="#f7dac5"] ;
17 -> 18 ;
19 [label="squared_error = 9524609375.0\nsamples = 8\nvalue = 306875.0", fillcolor="#f4caac"] ;
18 -> 19 ;
20 [label="squared_error = 2485576280.193\nsamples = 69\nvalue = 236883.333", fillcolor="#f8dcc8"] ;
18 -> 20 ;
21 [label="location.longitude <= 0.077\nsquared_error = 4811637318.097\nsamples = 839\nvalue = 304512.62", fillcolor="#f4cbad"] ;
17 -> 21 ;
22 [label="squared_error = 4733919922.075\nsamples = 730\nvalue = 312063.141", fillcolor="#f4c9aa"] ;
21 -> 22 ;
23 [label="squared_error = 2393223937.606\nsamples = 109\nvalue = 253944.908", fillcolor="#f7d7c1"] ;
21 -> 23 ;
24 [label="propertySubType_Hotel Room <= 0.5\nsquared_error = 33439674096.809\nsamples = 43\nvalue = 424370.93", fillcolor="#eead7e"] ;
8 -> 24 ;
25 [label="location.latitude <= 51.53\nsquared_error = 21204646351.644\nsamples = 34\nvalue = 490322.059", fillcolor="#eb9c64"] ;
24 -> 25 ;
26 [label="location.latitude <= 51.526\nsquared_error = 15148077614.746\nsamples = 32\nvalue = 511060.938", fillcolor="#ea975c"] ;
25 -> 26 ;
27 [label="squared_error = 9095793269.231\nsamples = 26\nvalue = 530250.0", fillcolor="#e99254"] ;
26 -> 27 ;
28 [label="squared_error = 32864667013.889\nsamples = 6\nvalue = 427908.333", fillcolor="#eeac7d"] ;
26 -> 28 ;
29 [label="analyticsProperty.added <= 20215222.0\nsquared_error = 1122250000.0\nsamples = 2\nvalue = 158500.0", fillcolor="#fcefe6"] ;
25 -> 29 ;
30 [label="squared_error = 0.0\nsamples = 1\nvalue = 192000.0", fillcolor="#fae7d9"] ;
29 -> 30 ;
31 [label="squared_error = 0.0\nsamples = 1\nvalue = 125000.0", fillcolor="#fdf8f3"] ;
29 -> 31 ;
32 [label="distance_to_any_train <= 0.1\nsquared_error = 1154172839.506\nsamples = 9\nvalue = 175222.222", fillcolor="#fbebe0"] ;
24 -> 32 ;
33 [label="analyticsProperty.imageCount <= 9.5\nsquared_error = 943750000.0\nsamples = 8\nvalue = 181500.0", fillcolor="#fbeadd"] ;
32 -> 33 ;
34 [label="squared_error = 680000000.0\nsamples = 5\nvalue = 184000.0", fillcolor="#fae9dc"] ;
33 -> 34 ;
35 [label="squared_error = 1355555555.556\nsamples = 3\nvalue = 177333.333", fillcolor="#fbebdf"] ;
33 -> 35 ;
36 [label="squared_error = 0.0\nsamples = 1\nvalue = 125000.0", fillcolor="#fdf8f3"] ;
32 -> 36 ;
37 [label="location.latitude <= 51.595\nsquared_error = 8297571702.119\nsamples = 606\nvalue = 349229.388", fillcolor="#f2c09b"] ;
7 -> 37 ;
38 [label="analyticsProperty.imageCount <= 15.5\nsquared_error = 8321419211.864\nsamples = 326\nvalue = 382029.23", fillcolor="#f0b78f"] ;
37 -> 38 ;
39 [label="location.longitude <= -0.119\nsquared_error = 7529622420.907\nsamples = 281\nvalue = 371731.776", fillcolor="#f1ba93"] ;
38 -> 39 ;
40 [label="location.longitude <= -0.12\nsquared_error = 7692297821.218\nsamples = 100\nvalue = 404075.89", fillcolor="#efb286"] ;
39 -> 40 ;
41 [label="squared_error = 6256432782.223\nsamples = 84\nvalue = 383542.726", fillcolor="#f0b78e"] ;
40 -> 41 ;
42 [label="squared_error = 1396484375.0\nsamples = 16\nvalue = 511875.0", fillcolor="#ea975c"] ;
40 -> 42 ;
43 [label="tenure.tenureType_SHARE_OF_FREEHOLD <= 0.5\nsquared_error = 6542442323.493\nsamples = 181\nvalue = 353862.099", fillcolor="#f2be9a"] ;
39 -> 43 ;
44 [label="squared_error = 5768628217.619\nsamples = 149\nvalue = 344188.523", fillcolor="#f2c19d"] ;
43 -> 44 ;
45 [label="squared_error = 7680956618.652\nsamples = 32\nvalue = 398904.688", fillcolor="#efb388"] ;
43 -> 45 ;
46 [label="location.latitude <= 51.554\nsquared_error = 8468872698.765\nsamples = 45\nvalue = 446331.111", fillcolor="#eda775"] ;
38 -> 46 ;
47 [label="location.longitude <= -0.086\nsquared_error = 3061224.49\nsamples = 7\nvalue = 599285.714", fillcolor="#e58139"] ;
46 -> 47 ;
48 [label="squared_error = 0.0\nsamples = 6\nvalue = 600000.0", fillcolor="#e58139"] ;
47 -> 48 ;
49 [label="squared_error = 0.0\nsamples = 1\nvalue = 595000.0", fillcolor="#e5823b"] ;
47 -> 49 ;
50 [label="tenure.tenureType_FREEHOLD <= 0.5\nsquared_error = 4924860235.457\nsamples = 38\nvalue = 418155.263", fillcolor="#eeae80"] ;
46 -> 50 ;
51 [label="squared_error = 4060434355.102\nsamples = 35\nvalue = 409141.429", fillcolor="#efb184"] ;
50 -> 51 ;
52 [label="squared_error = 3003000555.556\nsamples = 3\nvalue = 523316.667", fillcolor="#e99457"] ;
50 -> 52 ;
53 [label="location.longitude <= -0.101\nsquared_error = 5558880329.179\nsamples = 280\nvalue = 311041.0", fillcolor="#f4c9aa"] ;
37 -> 53 ;
54 [label="analyticsProperty.imageCount <= 12.5\nsquared_error = 4575101781.331\nsamples = 195\nvalue = 336182.718", fillcolor="#f3c3a1"] ;
53 -> 54 ;
55 [label="location.longitude <= -0.158\nsquared_error = 4229763370.348\nsamples = 139\nvalue = 323739.065", fillcolor="#f3c6a5"] ;
54 -> 55 ;
56 [label="squared_error = 3707583635.974\nsamples = 54\nvalue = 350645.37", fillcolor="#f2bf9b"] ;
55 -> 56 ;
57 [label="squared_error = 3809395435.17\nsamples = 85\nvalue = 306645.647", fillcolor="#f4caac"] ;
55 -> 57 ;
58 [label="analyticsProperty.added <= 20220366.0\nsquared_error = 4093932739.158\nsamples = 56\nvalue = 367069.643", fillcolor="#f1bb94"] ;
54 -> 58 ;
59 [label="squared_error = 2828281538.462\nsamples = 26\nvalue = 341650.0", fillcolor="#f2c29e"] ;
58 -> 59 ;
60 [label="squared_error = 4145490000.0\nsamples = 30\nvalue = 389100.0", fillcolor="#f0b68c"] ;
58 -> 60 ;
61 [label="location.longitude <= -0.056\nsquared_error = 3038900100.173\nsamples = 85\nvalue = 253362.941", fillcolor="#f7d8c1"] ;
53 -> 61 ;
62 [label="floorplan_count <= 2.5\nsquared_error = 2761015648.802\nsamples = 77\nvalue = 259816.234", fillcolor="#f7d6bf"] ;
61 -> 62 ;
63 [label="squared_error = 1360734648.438\nsamples = 8\nvalue = 213743.75", fillcolor="#f9e1d1"] ;
62 -> 63 ;
64 [label="squared_error = 2648725809.651\nsamples = 69\nvalue = 265157.971", fillcolor="#f6d5bc"] ;
62 -> 64 ;
65 [label="distance_to_any_train <= 0.3\nsquared_error = 1454687500.0\nsamples = 8\nvalue = 191250.0", fillcolor="#fae7d9"] ;
61 -> 65 ;
66 [label="squared_error = 0.0\nsamples = 1\nvalue = 100000.0", fillcolor="#fffefd"] ;
65 -> 66 ;
67 [label="squared_error = 303061224.49\nsamples = 7\nvalue = 204285.714", fillcolor="#f9e4d4"] ;
65 -> 67 ;
68 [label="location.longitude <= -0.199\nsquared_error = 9308503812.728\nsamples = 303\nvalue = 389683.036", fillcolor="#f0b68c"] ;
6 -> 68 ;
69 [label="location.longitude <= -0.232\nsquared_error = 4166773695.398\nsamples = 158\nvalue = 340995.981", fillcolor="#f2c29f"] ;
68 -> 69 ;
70 [label="location.latitude <= 51.596\nsquared_error = 1643266810.884\nsamples = 105\nvalue = 323012.857", fillcolor="#f3c6a6"] ;
69 -> 70 ;
71 [label="location.longitude <= -0.284\nsquared_error = 1504819837.38\nsamples = 67\nvalue = 333938.806", fillcolor="#f3c3a1"] ;
70 -> 71 ;
72 [label="squared_error = 0.0\nsamples = 1\nvalue = 450000.0", fillcolor="#eda674"] ;
71 -> 72 ;
73 [label="location.longitude <= -0.246\nsquared_error = 1320433854.454\nsamples = 66\nvalue = 332180.303", fillcolor="#f3c4a2"] ;
71 -> 73 ;
74 [label="squared_error = 527919371.811\nsamples = 28\nvalue = 315973.214", fillcolor="#f4c8a8"] ;
73 -> 74 ;
75 [label="squared_error = 1568232854.917\nsamples = 38\nvalue = 344122.368", fillcolor="#f2c19d"] ;
73 -> 75 ;
76 [label="location.longitude <= -0.247\nsquared_error = 1305782958.795\nsamples = 38\nvalue = 303748.684", fillcolor="#f4cbad"] ;
70 -> 76 ;
77 [label="propertySubType_Apartment <= 0.5\nsquared_error = 1311767933.333\nsamples = 15\nvalue = 281830.0", fillcolor="#f5d0b6"] ;
76 -> 77 ;
78 [label="squared_error = 684171875.0\nsamples = 12\nvalue = 293125.0", fillcolor="#f5ceb1"] ;
77 -> 78 ;
79 [label="squared_error = 1270611666.667\nsamples = 3\nvalue = 236650.0", fillcolor="#f8dcc8"] ;
77 -> 79 ;
80 [label="location.longitude <= -0.235\nsquared_error = 784215500.945\nsamples = 23\nvalue = 318043.478", fillcolor="#f4c7a8"] ;
76 -> 80 ;
81 [label="squared_error = 251557093.426\nsamples = 17\nvalue = 331176.471", fillcolor="#f3c4a3"] ;
80 -> 81 ;
82 [label="squared_error = 420138888.889\nsamples = 6\nvalue = 280833.333", fillcolor="#f5d1b6"] ;
80 -> 82 ;
83 [label="location.longitude <= -0.199\nsquared_error = 7256211284.372\nsamples = 53\nvalue = 376622.925", fillcolor="#f1b991"] ;
69 -> 83 ;
84 [label="borough_name_Barnet <= 0.5\nsquared_error = 5049425767.955\nsamples = 51\nvalue = 386318.922", fillcolor="#f0b68d"] ;
83 -> 84 ;
85 [label="tenure.tenureType_LEASEHOLD <= 0.5\nsquared_error = 3283471074.38\nsamples = 11\nvalue = 447272.727", fillcolor="#eda775"] ;
84 -> 85 ;
86 [label="squared_error = 0.0\nsamples = 1\nvalue = 600000.0", fillcolor="#e58139"] ;
85 -> 86 ;
87 [label="squared_error = 1046000000.0\nsamples = 10\nvalue = 432000.0", fillcolor="#eeab7b"] ;
85 -> 87 ;
88 [label="location.latitude <= 51.604\nsquared_error = 4232362954.234\nsamples = 40\nvalue = 369556.625", fillcolor="#f1bb93"] ;
84 -> 88 ;
89 [label="squared_error = 3397748488.752\nsamples = 23\nvalue = 338912.826", fillcolor="#f2c29f"] ;
88 -> 89 ;
90 [label="squared_error = 2372208065.398\nsamples = 17\nvalue = 411015.882", fillcolor="#efb083"] ;
88 -> 90 ;
91 [label="analyticsProperty.added <= 20210821.0\nsquared_error = 390625.0\nsamples = 2\nvalue = 129375.0", fillcolor="#fdf7f2"] ;
83 -> 91 ;
92 [label="squared_error = 0.0\nsamples = 1\nvalue = 128750.0", fillcolor="#fdf7f2"] ;
91 -> 92 ;
93 [label="squared_error = 0.0\nsamples = 1\nvalue = 130000.0", fillcolor="#fdf6f2"] ;
91 -> 93 ;
94 [label="propertySubType_Hotel Room <= 0.5\nsquared_error = 9513740537.912\nsamples = 145\nvalue = 442735.138", fillcolor="#eda877"] ;
68 -> 94 ;
95 [label="location.latitude <= 51.566\nsquared_error = 7072937236.029\nsamples = 141\nvalue = 451365.922", fillcolor="#eda673"] ;
94 -> 95 ;
96 [label="borough_name_Camden <= 0.5\nsquared_error = 6198495777.477\nsamples = 128\nvalue = 462248.008", fillcolor="#eca36f"] ;
95 -> 96 ;
97 [label="location.longitude <= -0.194\nsquared_error = 8138957438.619\nsamples = 66\nvalue = 489437.045", fillcolor="#eb9d64"] ;
96 -> 97 ;
98 [label="squared_error = 6262964674.556\nsamples = 13\nvalue = 427688.462", fillcolor="#eeac7d"] ;
97 -> 98 ;
99 [label="squared_error = 7434472369.277\nsamples = 53\nvalue = 504582.925", fillcolor="#ea995e"] ;
97 -> 99 ;
100 [label="location.longitude <= -0.128\nsquared_error = 2508199089.49\nsamples = 62\nvalue = 433304.839", fillcolor="#eeab7a"] ;
96 -> 100 ;
101 [label="squared_error = 2230598977.425\nsamples = 61\nvalue = 435572.131", fillcolor="#edaa7a"] ;
100 -> 101 ;
102 [label="squared_error = 0.0\nsamples = 1\nvalue = 295000.0", fillcolor="#f5cdb1"] ;
100 -> 102 ;
103 [label="location.longitude <= -0.154\nsquared_error = 3036429437.87\nsamples = 13\nvalue = 344219.231", fillcolor="#f2c19d"] ;
95 -> 103 ;
104 [label="analyticsProperty.imageCount <= 5.5\nsquared_error = 1100042013.889\nsamples = 12\nvalue = 331241.667", fillcolor="#f3c4a3"] ;
103 -> 104 ;
105 [label="squared_error = 506250000.0\nsamples = 2\nvalue = 272500.0", fillcolor="#f6d3ba"] ;
104 -> 105 ;
106 [label="squared_error = 390660400.0\nsamples = 10\nvalue = 342990.0", fillcolor="#f2c19e"] ;
104 -> 106 ;
107 [label="squared_error = 0.0\nsamples = 1\nvalue = 499950.0", fillcolor="#ea9a60"] ;
103 -> 107 ;
108 [label="analyticsProperty.imageCount <= 6.0\nsquared_error = 367250000.0\nsamples = 4\nvalue = 138500.0", fillcolor="#fdf4ee"] ;
94 -> 108 ;
109 [label="squared_error = 0.0\nsamples = 1\nvalue = 111000.0", fillcolor="#fefbf9"] ;
108 -> 109 ;
110 [label="analyticsProperty.imageCount <= 8.0\nsquared_error = 153555555.556\nsamples = 3\nvalue = 147666.667", fillcolor="#fcf2eb"] ;
108 -> 110 ;
111 [label="squared_error = 0.0\nsamples = 1\nvalue = 164000.0", fillcolor="#fbeee4"] ;
110 -> 111 ;
112 [label="location.longitude <= -0.147\nsquared_error = 30250000.0\nsamples = 2\nvalue = 139500.0", fillcolor="#fdf4ee"] ;
110 -> 112 ;
113 [label="squared_error = 0.0\nsamples = 1\nvalue = 134000.0", fillcolor="#fdf5f0"] ;
112 -> 113 ;
114 [label="squared_error = 0.0\nsamples = 1\nvalue = 145000.0", fillcolor="#fcf3ec"] ;
112 -> 114 ;
115 [label="location.latitude <= 51.509\nsquared_error = 10279365222.618\nsamples = 492\nvalue = 380628.008", fillcolor="#f0b88f"] ;
5 -> 115 ;
116 [label="location.latitude <= 51.501\nsquared_error = 9952217242.271\nsamples = 146\nvalue = 424580.055", fillcolor="#eead7e"] ;
115 -> 116 ;
117 [label="location.longitude <= -0.02\nsquared_error = 8286577988.208\nsamples = 78\nvalue = 381553.705", fillcolor="#f0b88f"] ;
116 -> 117 ;
118 [label="location.longitude <= -0.026\nsquared_error = 1416336886.0\nsamples = 35\nvalue = 337427.0", fillcolor="#f3c3a0"] ;
117 -> 118 ;
119 [label="analyticsProperty.added <= 20220268.0\nsquared_error = 1012500000.0\nsamples = 4\nvalue = 295000.0", fillcolor="#f5cdb1"] ;
118 -> 119 ;
120 [label="location.latitude <= 51.496\nsquared_error = 225000000.0\nsamples = 2\nvalue = 265000.0", fillcolor="#f6d5bd"] ;
119 -> 120 ;
121 [label="squared_error = 0.0\nsamples = 1\nvalue = 250000.0", fillcolor="#f7d8c2"] ;
120 -> 121 ;
122 [label="squared_error = 0.0\nsamples = 1\nvalue = 280000.0", fillcolor="#f5d1b7"] ;
120 -> 122 ;
123 [label="squared_error = 0.0\nsamples = 2\nvalue = 325000.0", fillcolor="#f3c6a5"] ;
119 -> 123 ;
124 [label="analyticsProperty.imageCount <= 9.5\nsquared_error = 1206210692.248\nsamples = 31\nvalue = 342901.452", fillcolor="#f2c19e"] ;
118 -> 124 ;
125 [label="analyticsProperty.imageCount <= 4.5\nsquared_error = 1209451318.359\nsamples = 16\nvalue = 327809.375", fillcolor="#f3c5a4"] ;
124 -> 125 ;
126 [label="squared_error = 0.0\nsamples = 1\nvalue = 400000.0", fillcolor="#efb388"] ;
125 -> 126 ;
127 [label="squared_error = 919486822.222\nsamples = 15\nvalue = 322996.667", fillcolor="#f3c6a6"] ;
125 -> 127 ;
128 [label="location.latitude <= 51.498\nsquared_error = 700646001.556\nsamples = 15\nvalue = 358999.667", fillcolor="#f1bd98"] ;
124 -> 128 ;
129 [label="squared_error = 672791977.778\nsamples = 9\nvalue = 347221.667", fillcolor="#f2c09c"] ;
128 -> 129 ;
130 [label="squared_error = 222222222.222\nsamples = 6\nvalue = 376666.667", fillcolor="#f1b991"] ;
128 -> 130 ;
131 [label="location.latitude <= 51.5\nsquared_error = 11003695019.514\nsamples = 43\nvalue = 417470.791", fillcolor="#eeaf81"] ;
117 -> 131 ;
132 [label="location.latitude <= 51.491\nsquared_error = 5216931078.881\nsamples = 39\nvalue = 436474.205", fillcolor="#edaa79"] ;
131 -> 132 ;
133 [label="location.latitude <= 51.488\nsquared_error = 1166000000.0\nsamples = 10\nvalue = 353000.0", fillcolor="#f2bf9a"] ;
132 -> 133 ;
134 [label="squared_error = 1074000000.0\nsamples = 5\nvalue = 374000.0", fillcolor="#f1b992"] ;
133 -> 134 ;
135 [label="squared_error = 376000000.0\nsamples = 5\nvalue = 332000.0", fillcolor="#f3c4a2"] ;
133 -> 135 ;
136 [label="analyticsProperty.imageCount <= 18.5\nsquared_error = 3382534257.691\nsamples = 29\nvalue = 465258.414", fillcolor="#eca36e"] ;
132 -> 136 ;
137 [label="squared_error = 2908173081.846\nsamples = 27\nvalue = 472147.926", fillcolor="#eca16b"] ;
136 -> 137 ;
138 [label="squared_error = 495062500.0\nsamples = 2\nvalue = 372250.0", fillcolor="#f1ba92"] ;
136 -> 138 ;
139 [label="squared_error = 29573730468.75\nsamples = 4\nvalue = 232187.5", fillcolor="#f8ddc9"] ;
131 -> 139 ;
140 [label="location.latitude <= 51.506\nsquared_error = 7303498530.508\nsamples = 68\nvalue = 473933.809", fillcolor="#eba06a"] ;
116 -> 140 ;
141 [label="distance_to_any_train <= 0.15\nsquared_error = 3796391581.633\nsamples = 28\nvalue = 517035.714", fillcolor="#e9965a"] ;
140 -> 141 ;
142 [label="analyticsProperty.added <= 20210623.0\nsquared_error = 854360000.0\nsamples = 10\nvalue = 554800.0", fillcolor="#e78c4b"] ;
141 -> 142 ;
143 [label="analyticsProperty.added <= 20210522.0\nsquared_error = 1862000000.0\nsamples = 3\nvalue = 536000.0", fillcolor="#e89152"] ;
142 -> 143 ;
144 [label="squared_error = 2250000.0\nsamples = 2\nvalue = 566500.0", fillcolor="#e78946"] ;
143 -> 144 ;
145 [label="squared_error = 0.0\nsamples = 1\nvalue = 475000.0", fillcolor="#eba06a"] ;
143 -> 145 ;
146 [label="location.latitude <= 51.505\nsquared_error = 206122448.98\nsamples = 7\nvalue = 562857.143", fillcolor="#e78a48"] ;
142 -> 146 ;
147 [label="squared_error = 138888888.889\nsamples = 6\nvalue = 566666.667", fillcolor="#e78946"] ;
146 -> 147 ;
148 [label="squared_error = 0.0\nsamples = 1\nvalue = 540000.0", fillcolor="#e89051"] ;
146 -> 148 ;
149 [label="analyticsProperty.added <= 20220570.0\nsquared_error = 4198385802.469\nsamples = 18\nvalue = 496055.556", fillcolor="#ea9b62"] ;
141 -> 149 ;
150 [label="location.longitude <= -0.025\nsquared_error = 3203808593.75\nsamples = 16\nvalue = 483062.5", fillcolor="#eb9e67"] ;
149 -> 150 ;
151 [label="squared_error = 2314876033.058\nsamples = 11\nvalue = 460818.182", fillcolor="#eca470"] ;
150 -> 151 ;
152 [label="squared_error = 1676000000.0\nsamples = 5\nvalue = 532000.0", fillcolor="#e99254"] ;
150 -> 152 ;
153 [label="squared_error = 0.0\nsamples = 2\nvalue = 600000.0", fillcolor="#e58139"] ;
149 -> 153 ;
154 [label="analyticsProperty.propertyType_Not Specified <= 0.5\nsquared_error = 7547722031.899\nsamples = 40\nvalue = 443762.475", fillcolor="#eda876"] ;
140 -> 154 ;
155 [label="distance_to_any_train <= 0.15\nsquared_error = 6178593426.06\nsamples = 39\nvalue = 450012.795", fillcolor="#eda674"] ;
154 -> 155 ;
156 [label="location.latitude <= 51.508\nsquared_error = 5447519204.39\nsamples = 27\nvalue = 422907.407", fillcolor="#eead7f"] ;
155 -> 156 ;
157 [label="squared_error = 4753696675.9\nsamples = 19\nvalue = 441026.316", fillcolor="#eda977"] ;
156 -> 157 ;
158 [label="squared_error = 4463859375.0\nsamples = 8\nvalue = 379875.0", fillcolor="#f0b88f"] ;
156 -> 158 ;
159 [label="location.longitude <= -0.056\nsquared_error = 2451001833.41\nsamples = 12\nvalue = 510999.917", fillcolor="#ea975c"] ;
155 -> 159 ;
160 [label="squared_error = 0.0\nsamples = 3\nvalue = 450000.0", fillcolor="#eda674"] ;
159 -> 160 ;
161 [label="squared_error = 1614229185.284\nsamples = 9\nvalue = 531333.222", fillcolor="#e99254"] ;
159 -> 161 ;
162 [label="squared_error = 0.0\nsamples = 1\nvalue = 200000.0", fillcolor="#fae5d6"] ;
154 -> 162 ;
163 [label="location.longitude <= -0.057\nsquared_error = 9258302153.253\nsamples = 346\nvalue = 362081.769", fillcolor="#f1bc96"] ;
115 -> 163 ;
164 [label="analyticsProperty.added <= 20220321.0\nsquared_error = 11525127164.25\nsamples = 72\nvalue = 414318.736", fillcolor="#efaf82"] ;
163 -> 164 ;
165 [label="propertySubType_Flat <= 0.5\nsquared_error = 10121865473.416\nsamples = 35\nvalue = 367427.114", fillcolor="#f1bb94"] ;
164 -> 165 ;
166 [label="distance_to_any_train <= 0.25\nsquared_error = 6623752560.263\nsamples = 17\nvalue = 407938.176", fillcolor="#efb184"] ;
165 -> 166 ;
167 [label="location.longitude <= -0.062\nsquared_error = 7583697347.061\nsamples = 7\nvalue = 463571.286", fillcolor="#eca36f"] ;
166 -> 167 ;
168 [label="squared_error = 2650000000.0\nsamples = 5\nvalue = 510000.0", fillcolor="#ea975c"] ;
167 -> 168 ;
169 [label="squared_error = 1056217500.25\nsamples = 2\nvalue = 347499.5", fillcolor="#f2c09c"] ;
167 -> 169 ;
170 [label="analyticsProperty.added <= 20220216.0\nsquared_error = 2268690225.0\nsamples = 10\nvalue = 368995.0", fillcolor="#f1bb94"] ;
166 -> 170 ;
171 [label="squared_error = 798877857.143\nsamples = 7\nvalue = 392850.0", fillcolor="#f0b58a"] ;
170 -> 171 ;
172 [label="squared_error = 1272222222.222\nsamples = 3\nvalue = 313333.333", fillcolor="#f4c9aa"] ;
170 -> 172 ;
173 [label="analyticsProperty.imageCount <= 9.5\nsquared_error = 10411805555.556\nsamples = 18\nvalue = 329166.667", fillcolor="#f3c5a3"] ;
165 -> 173 ;
174 [label="analyticsProperty.added <= 20220317.0\nsquared_error = 6710250000.0\nsamples = 10\nvalue = 386500.0", fillcolor="#f0b68d"] ;
173 -> 174 ;
175 [label="squared_error = 5780246913.58\nsamples = 9\nvalue = 399444.444", fillcolor="#efb388"] ;
174 -> 175 ;
176 [label="squared_error = 0.0\nsamples = 1\nvalue = 270000.0", fillcolor="#f6d3bb"] ;
174 -> 176 ;
177 [label="tenure.tenureType_SHARE_OF_FREEHOLD <= 0.5\nsquared_error = 5793750000.0\nsamples = 8\nvalue = 257500.0", fillcolor="#f7d7bf"] ;
173 -> 177 ;
178 [label="squared_error = 2490000000.0\nsamples = 5\nvalue = 210000.0", fillcolor="#f9e2d2"] ;
177 -> 178 ;
179 [label="squared_error = 1272222222.222\nsamples = 3\nvalue = 336666.667", fillcolor="#f3c3a0"] ;
177 -> 179 ;
180 [label="analyticsProperty.imageCount <= 9.5\nsquared_error = 8805029948.868\nsamples = 37\nvalue = 458675.676", fillcolor="#eca470"] ;
164 -> 180 ;
181 [label="analyticsProperty.added <= 20220519.0\nsquared_error = 9424060000.0\nsamples = 20\nvalue = 426800.0", fillcolor="#eeac7d"] ;
180 -> 181 ;
182 [label="analyticsProperty.added <= 20220505.0\nsquared_error = 14461551020.408\nsamples = 7\nvalue = 370142.857", fillcolor="#f1ba93"] ;
181 -> 182 ;
183 [label="squared_error = 7394000000.0\nsamples = 5\nvalue = 426000.0", fillcolor="#eeac7d"] ;
182 -> 183 ;
184 [label="squared_error = 4830250000.0\nsamples = 2\nvalue = 230500.0", fillcolor="#f8ddca"] ;
182 -> 184 ;
185 [label="analyticsProperty.added <= 20220621.0\nsquared_error = 4052366863.905\nsamples = 13\nvalue = 457307.692", fillcolor="#eca571"] ;
181 -> 185 ;
186 [label="squared_error = 3135714285.714\nsamples = 7\nvalue = 490000.0", fillcolor="#eb9c64"] ;
185 -> 186 ;
187 [label="squared_error = 2420138888.889\nsamples = 6\nvalue = 419166.667", fillcolor="#eeae80"] ;
185 -> 187 ;
188 [label="location.latitude <= 51.531\nsquared_error = 5475086505.19\nsamples = 17\nvalue = 496176.471", fillcolor="#ea9b62"] ;
180 -> 188 ;
189 [label="propertySubType_Flat <= 0.5\nsquared_error = 3756152343.75\nsamples = 16\nvalue = 507187.5", fillcolor="#ea985d"] ;
188 -> 189 ;
190 [label="squared_error = 1975000000.0\nsamples = 10\nvalue = 530000.0", fillcolor="#e99254"] ;
189 -> 190 ;
191 [label="squared_error = 4411805555.556\nsamples = 6\nvalue = 469166.667", fillcolor="#eca26c"] ;
189 -> 191 ;
192 [label="squared_error = 0.0\nsamples = 1\nvalue = 320000.0", fillcolor="#f3c7a7"] ;
188 -> 192 ;
193 [label="location.latitude <= 51.54\nsquared_error = 7757192384.042\nsamples = 274\nvalue = 348355.266", fillcolor="#f2c09c"] ;
163 -> 193 ;
194 [label="analyticsProperty.propertyType_Houses <= 0.5\nsquared_error = 7615763237.787\nsamples = 268\nvalue = 345762.474", fillcolor="#f2c19d"] ;
193 -> 194 ;
195 [label="floorplan_count <= 2.5\nsquared_error = 7374078694.569\nsamples = 266\nvalue = 347253.169", fillcolor="#f2c09c"] ;
194 -> 195 ;
196 [label="location.latitude <= 51.511\nsquared_error = 6386040118.75\nsamples = 20\nvalue = 407997.5", fillcolor="#efb184"] ;
195 -> 196 ;
197 [label="squared_error = 14394000625.0\nsamples = 2\nvalue = 279975.0", fillcolor="#f5d1b7"] ;
196 -> 197 ;
198 [label="squared_error = 3472839506.173\nsamples = 18\nvalue = 422222.222", fillcolor="#eead7f"] ;
196 -> 198 ;
199 [label="analyticsProperty.imageCount <= 25.5\nsquared_error = 7130027890.849\nsamples = 246\nvalue = 342314.606", fillcolor="#f2c19e"] ;
195 -> 199 ;
200 [label="squared_error = 6880802960.81\nsamples = 242\nvalue = 339956.169", fillcolor="#f2c29f"] ;
199 -> 200 ;
201 [label="squared_error = 1512500000.0\nsamples = 4\nvalue = 485000.0", fillcolor="#eb9e66"] ;
199 -> 201 ;
202 [label="analyticsProperty.imageCount <= 13.5\nsquared_error = 156250000.0\nsamples = 2\nvalue = 147500.0", fillcolor="#fcf2eb"] ;
194 -> 202 ;
203 [label="squared_error = 0.0\nsamples = 1\nvalue = 135000.0", fillcolor="#fdf5f0"] ;
202 -> 203 ;
204 [label="squared_error = 0.0\nsamples = 1\nvalue = 160000.0", fillcolor="#fcefe6"] ;
202 -> 204 ;
205 [label="location.latitude <= 51.542\nsquared_error = 361805555.556\nsamples = 6\nvalue = 464166.667", fillcolor="#eca36e"] ;
193 -> 205 ;
206 [label="analyticsProperty.imageCount <= 18.0\nsquared_error = 56250000.0\nsamples = 4\nvalue = 452500.0", fillcolor="#eda673"] ;
205 -> 206 ;
207 [label="location.longitude <= -0.022\nsquared_error = 5555555.556\nsamples = 3\nvalue = 448333.333", fillcolor="#eda775"] ;
206 -> 207 ;
208 [label="squared_error = 0.0\nsamples = 2\nvalue = 450000.0", fillcolor="#eda674"] ;
207 -> 208 ;
209 [label="squared_error = 0.0\nsamples = 1\nvalue = 445000.0", fillcolor="#eda876"] ;
207 -> 209 ;
210 [label="squared_error = 0.0\nsamples = 1\nvalue = 465000.0", fillcolor="#eca36e"] ;
206 -> 210 ;
211 [label="location.longitude <= -0.026\nsquared_error = 156250000.0\nsamples = 2\nvalue = 487500.0", fillcolor="#eb9d65"] ;
205 -> 211 ;
212 [label="squared_error = 0.0\nsamples = 1\nvalue = 475000.0", fillcolor="#eba06a"] ;
211 -> 212 ;
213 [label="squared_error = 0.0\nsamples = 1\nvalue = 500000.0", fillcolor="#ea9a60"] ;
211 -> 213 ;
214 [label="location.longitude <= -0.056\nsquared_error = 8175601144.392\nsamples = 378\nvalue = 417358.648", fillcolor="#eeaf81"] ;
4 -> 214 ;
215 [label="analyticsProperty.imageCount <= 16.5\nsquared_error = 7721734826.38\nsamples = 294\nvalue = 428638.027", fillcolor="#eeac7c"] ;
214 -> 215 ;
216 [label="analyticsProperty.added <= 20210619.0\nsquared_error = 7856666380.839\nsamples = 252\nvalue = 420295.952", fillcolor="#eeae80"] ;
215 -> 216 ;
217 [label="location.longitude <= -0.075\nsquared_error = 6730711570.248\nsamples = 11\nvalue = 496354.545", fillcolor="#ea9b62"] ;
216 -> 217 ;
218 [label="analyticsProperty.imageCount <= 7.5\nsquared_error = 3325346666.667\nsamples = 9\nvalue = 526100.0", fillcolor="#e99356"] ;
217 -> 218 ;
219 [label="propertySubType_Flat <= 0.5\nsquared_error = 156250000.0\nsamples = 2\nvalue = 587500.0", fillcolor="#e6843e"] ;
218 -> 219 ;
220 [label="squared_error = 0.0\nsamples = 1\nvalue = 600000.0", fillcolor="#e58139"] ;
219 -> 220 ;
221 [label="squared_error = 0.0\nsamples = 1\nvalue = 575000.0", fillcolor="#e68743"] ;
219 -> 221 ;
222 [label="tenure.tenureType_LEASEHOLD <= 0.5\nsquared_error = 2845919591.837\nsamples = 7\nvalue = 508557.143", fillcolor="#ea985d"] ;
218 -> 222 ;
223 [label="squared_error = 0.0\nsamples = 1\nvalue = 400000.0", fillcolor="#efb388"] ;
222 -> 223 ;
224 [label="location.longitude <= -0.094\nsquared_error = 1028779166.667\nsamples = 6\nvalue = 526650.0", fillcolor="#e99356"] ;
222 -> 224 ;
225 [label="squared_error = 0.0\nsamples = 1\nvalue = 579900.0", fillcolor="#e68641"] ;
224 -> 225 ;
226 [label="squared_error = 554000000.0\nsamples = 5\nvalue = 516000.0", fillcolor="#e9965a"] ;
224 -> 226 ;
227 [label="propertySubType_Apartment <= 0.5\nsquared_error = 156250000.0\nsamples = 2\nvalue = 362500.0", fillcolor="#f1bc96"] ;
217 -> 227 ;
228 [label="squared_error = 0.0\nsamples = 1\nvalue = 350000.0", fillcolor="#f2bf9b"] ;
227 -> 228 ;
229 [label="squared_error = 0.0\nsamples = 1\nvalue = 375000.0", fillcolor="#f1b991"] ;
227 -> 229 ;
230 [label="analyticsProperty.imageCount <= 9.5\nsquared_error = 7631965305.551\nsamples = 241\nvalue = 416824.398", fillcolor="#eeaf81"] ;
216 -> 230 ;
231 [label="distance_to_any_train <= 0.45\nsquared_error = 8515042688.081\nsamples = 91\nvalue = 395757.692", fillcolor="#f0b489"] ;
230 -> 231 ;
232 [label="location.longitude <= -0.061\nsquared_error = 6443711968.359\nsamples = 80\nvalue = 406549.375", fillcolor="#efb185"] ;
231 -> 232 ;
233 [label="location.latitude <= 51.573\nsquared_error = 5681120540.997\nsamples = 74\nvalue = 413229.054", fillcolor="#efb082"] ;
232 -> 233 ;
234 [label="squared_error = 5127581643.836\nsamples = 73\nvalue = 416150.0", fillcolor="#eeaf81"] ;
233 -> 234 ;
235 [label="squared_error = 0.0\nsamples = 1\nvalue = 200000.0", fillcolor="#fae5d6"] ;
233 -> 235 ;
236 [label="location.longitude <= -0.061\nsquared_error = 8511805555.556\nsamples = 6\nvalue = 324166.667", fillcolor="#f3c6a5"] ;
232 -> 236 ;
237 [label="squared_error = 2256250000.0\nsamples = 2\nvalue = 202500.0", fillcolor="#f9e4d5"] ;
236 -> 237 ;
238 [label="squared_error = 537500000.0\nsamples = 4\nvalue = 385000.0", fillcolor="#f0b78d"] ;
236 -> 238 ;
239 [label="distance_to_any_train <= 0.55\nsquared_error = 16572391528.926\nsamples = 11\nvalue = 317272.727", fillcolor="#f4c8a8"] ;
231 -> 239 ;
240 [label="propertySubType_Flat <= 0.5\nsquared_error = 8878515625.0\nsamples = 8\nvalue = 260000.0", fillcolor="#f7d6be"] ;
239 -> 240 ;
241 [label="squared_error = 416666666.667\nsamples = 3\nvalue = 350000.0", fillcolor="#f2bf9b"] ;
240 -> 241 ;
242 [label="squared_error = 6179625000.0\nsamples = 5\nvalue = 206000.0", fillcolor="#f9e3d4"] ;
240 -> 242 ;
243 [label="location.latitude <= 51.542\nsquared_error = 5016666666.667\nsamples = 3\nvalue = 470000.0", fillcolor="#eca16c"] ;
239 -> 243 ;
244 [label="squared_error = 0.0\nsamples = 1\nvalue = 565000.0", fillcolor="#e78a47"] ;
243 -> 244 ;
245 [label="squared_error = 756250000.0\nsamples = 2\nvalue = 422500.0", fillcolor="#eead7f"] ;
243 -> 245 ;
246 [label="location.longitude <= -0.094\nsquared_error = 6663648953.649\nsamples = 150\nvalue = 429604.867", fillcolor="#eeac7c"] ;
230 -> 246 ;
247 [label="location.latitude <= 51.546\nsquared_error = 5207142860.204\nsamples = 14\nvalue = 499999.286", fillcolor="#ea9a60"] ;
246 -> 247 ;
248 [label="location.longitude <= -0.095\nsquared_error = 264000000.0\nsamples = 5\nvalue = 581000.0", fillcolor="#e68640"] ;
247 -> 248 ;
249 [label="squared_error = 38888888.889\nsamples = 3\nvalue = 568333.333", fillcolor="#e78945"] ;
248 -> 249 ;
250 [label="squared_error = 0.0\nsamples = 2\nvalue = 600000.0", fillcolor="#e58139"] ;
248 -> 250 ;
251 [label="location.longitude <= -0.098\nsquared_error = 2283233337.654\nsamples = 9\nvalue = 454998.889", fillcolor="#eca572"] ;
247 -> 251 ;
252 [label="squared_error = 1666666666.667\nsamples = 3\nvalue = 400000.0", fillcolor="#efb388"] ;
251 -> 252 ;
253 [label="squared_error = 322858338.889\nsamples = 6\nvalue = 482498.333", fillcolor="#eb9e67"] ;
251 -> 253 ;
254 [label="location.latitude <= 51.574\nsquared_error = 6250959816.133\nsamples = 136\nvalue = 422358.382", fillcolor="#eead7f"] ;
246 -> 254 ;
255 [label="coarse_compass_direction_EC <= 0.5\nsquared_error = 6005995190.137\nsamples = 134\nvalue = 424557.761", fillcolor="#eead7e"] ;
254 -> 255 ;
256 [label="squared_error = 5831085514.814\nsamples = 133\nvalue = 423276.241", fillcolor="#eead7e"] ;
255 -> 256 ;
257 [label="squared_error = 0.0\nsamples = 1\nvalue = 595000.0", fillcolor="#e5823b"] ;
255 -> 257 ;
258 [label="analyticsProperty.added <= 20220210.0\nsquared_error = 625000000.0\nsamples = 2\nvalue = 275000.0", fillcolor="#f6d2b9"] ;
254 -> 258 ;
259 [label="squared_error = 0.0\nsamples = 1\nvalue = 300000.0", fillcolor="#f4ccaf"] ;
258 -> 259 ;
260 [label="squared_error = 0.0\nsamples = 1\nvalue = 250000.0", fillcolor="#f7d8c2"] ;
258 -> 260 ;
261 [label="distance_to_any_train <= 0.25\nsquared_error = 3989356575.964\nsamples = 42\nvalue = 478690.476", fillcolor="#eb9f69"] ;
215 -> 261 ;
262 [label="location.longitude <= -0.073\nsquared_error = 3806332703.214\nsamples = 23\nvalue = 454565.217", fillcolor="#eca572"] ;
261 -> 262 ;
263 [label="analyticsProperty.imageCount <= 23.0\nsquared_error = 3269230769.231\nsamples = 13\nvalue = 425000.0", fillcolor="#eead7e"] ;
262 -> 263 ;
264 [label="location.longitude <= -0.076\nsquared_error = 2131076388.889\nsamples = 12\nvalue = 414583.333", fillcolor="#efaf82"] ;
263 -> 264 ;
265 [label="location.latitude <= 51.571\nsquared_error = 1865234375.0\nsamples = 8\nvalue = 434375.0", fillcolor="#eeaa7a"] ;
264 -> 265 ;
266 [label="squared_error = 1428571428.571\nsamples = 7\nvalue = 425000.0", fillcolor="#eead7e"] ;
265 -> 266 ;
267 [label="squared_error = 0.0\nsamples = 1\nvalue = 500000.0", fillcolor="#ea9a60"] ;
265 -> 267 ;
268 [label="tenure.tenureType_SHARE_OF_FREEHOLD <= 0.5\nsquared_error = 312500000.0\nsamples = 4\nvalue = 375000.0", fillcolor="#f1b991"] ;
264 -> 268 ;
269 [label="squared_error = 138888888.889\nsamples = 3\nvalue = 366666.667", fillcolor="#f1bb95"] ;
268 -> 269 ;
270 [label="squared_error = 0.0\nsamples = 1\nvalue = 400000.0", fillcolor="#efb388"] ;
268 -> 270 ;
271 [label="squared_error = 0.0\nsamples = 1\nvalue = 550000.0", fillcolor="#e88d4d"] ;
263 -> 271 ;
272 [label="analyticsProperty.added <= 20220617.0\nsquared_error = 1891000000.0\nsamples = 10\nvalue = 493000.0", fillcolor="#eb9c63"] ;
262 -> 272 ;
273 [label="analyticsProperty.imageCount <= 18.5\nsquared_error = 1033333333.333\nsamples = 9\nvalue = 503333.333", fillcolor="#ea995f"] ;
272 -> 273 ;
274 [label="propertySubType_Flat <= 0.5\nsquared_error = 506250000.0\nsamples = 2\nvalue = 547500.0", fillcolor="#e88e4e"] ;
273 -> 274 ;
275 [label="squared_error = 0.0\nsamples = 1\nvalue = 525000.0", fillcolor="#e99456"] ;
274 -> 275 ;
276 [label="squared_error = 0.0\nsamples = 1\nvalue = 570000.0", fillcolor="#e78845"] ;
274 -> 276 ;
277 [label="location.latitude <= 51.563\nsquared_error = 467346938.775\nsamples = 7\nvalue = 490714.286", fillcolor="#eb9c64"] ;
273 -> 277 ;
278 [label="squared_error = 222916666.667\nsamples = 6\nvalue = 497500.0", fillcolor="#ea9b61"] ;
277 -> 278 ;
279 [label="squared_error = 0.0\nsamples = 1\nvalue = 450000.0", fillcolor="#eda674"] ;
277 -> 279 ;
280 [label="squared_error = 0.0\nsamples = 1\nvalue = 400000.0", fillcolor="#efb388"] ;
272 -> 280 ;
281 [label="distance_to_any_train <= 0.45\nsquared_error = 2653462603.878\nsamples = 19\nvalue = 507894.737", fillcolor="#ea985d"] ;
261 -> 281 ;
282 [label="analyticsProperty.added <= 20220216.0\nsquared_error = 2347066326.531\nsamples = 14\nvalue = 493928.571", fillcolor="#ea9b63"] ;
281 -> 282 ;
283 [label="location.latitude <= 51.531\nsquared_error = 3105555555.555\nsamples = 3\nvalue = 553333.333", fillcolor="#e78d4b"] ;
282 -> 283 ;
284 [label="squared_error = 0.0\nsamples = 1\nvalue = 475000.0", fillcolor="#eba06a"] ;
283 -> 284 ;
285 [label="propertySubType_Flat <= 0.5\nsquared_error = 56250000.0\nsamples = 2\nvalue = 592500.0", fillcolor="#e5833c"] ;
283 -> 285 ;
286 [label="squared_error = 0.0\nsamples = 1\nvalue = 600000.0", fillcolor="#e58139"] ;
285 -> 286 ;
287 [label="squared_error = 0.0\nsamples = 1\nvalue = 585000.0", fillcolor="#e6853f"] ;
285 -> 287 ;
288 [label="tenure.tenureType_LEASEHOLD <= 0.5\nsquared_error = 915289256.198\nsamples = 11\nvalue = 477727.273", fillcolor="#eba069"] ;
282 -> 288 ;
289 [label="location.longitude <= -0.068\nsquared_error = 556250000.0\nsamples = 6\nvalue = 497500.0", fillcolor="#ea9b61"] ;
288 -> 289 ;
290 [label="squared_error = 126000000.0\nsamples = 5\nvalue = 507000.0", fillcolor="#ea985e"] ;
289 -> 290 ;
291 [label="squared_error = 0.0\nsamples = 1\nvalue = 450000.0", fillcolor="#eda674"] ;
289 -> 291 ;
292 [label="analyticsProperty.added <= 20220321.0\nsquared_error = 314000000.0\nsamples = 5\nvalue = 454000.0", fillcolor="#eda572"] ;
288 -> 292 ;
293 [label="squared_error = 0.0\nsamples = 1\nvalue = 425000.0", fillcolor="#eead7e"] ;
292 -> 293 ;
294 [label="squared_error = 129687500.0\nsamples = 4\nvalue = 461250.0", fillcolor="#eca46f"] ;
292 -> 294 ;
295 [label="analyticsProperty.imageCount <= 20.5\nsquared_error = 1436000000.0\nsamples = 5\nvalue = 547000.0", fillcolor="#e88e4e"] ;
281 -> 295 ;
296 [label="location.latitude <= 51.544\nsquared_error = 416666666.667\nsamples = 3\nvalue = 575000.0", fillcolor="#e68743"] ;
295 -> 296 ;
297 [label="squared_error = 0.0\nsamples = 1\nvalue = 600000.0", fillcolor="#e58139"] ;
296 -> 297 ;
298 [label="distance_to_any_train <= 0.55\nsquared_error = 156250000.0\nsamples = 2\nvalue = 562500.0", fillcolor="#e78a48"] ;
296 -> 298 ;
299 [label="squared_error = 0.0\nsamples = 1\nvalue = 550000.0", fillcolor="#e88d4d"] ;
298 -> 299 ;
300 [label="squared_error = 0.0\nsamples = 1\nvalue = 575000.0", fillcolor="#e68743"] ;
298 -> 300 ;
301 [label="analyticsProperty.added <= 20215665.0\nsquared_error = 25000000.0\nsamples = 2\nvalue = 505000.0", fillcolor="#ea995e"] ;
295 -> 301 ;
302 [label="squared_error = 0.0\nsamples = 1\nvalue = 500000.0", fillcolor="#ea9a60"] ;
301 -> 302 ;
303 [label="squared_error = 0.0\nsamples = 1\nvalue = 510000.0", fillcolor="#ea975c"] ;
301 -> 303 ;
304 [label="analyticsProperty.added <= 20220626.0\nsquared_error = 7760349082.79\nsamples = 84\nvalue = 377880.821", fillcolor="#f0b890"] ;
214 -> 304 ;
305 [label="location.latitude <= 51.545\nsquared_error = 6883424409.848\nsamples = 81\nvalue = 384314.679", fillcolor="#f0b78e"] ;
304 -> 305 ;
306 [label="analyticsProperty.imageCount <= 24.5\nsquared_error = 5209013022.743\nsamples = 24\nvalue = 424374.583", fillcolor="#eead7e"] ;
305 -> 306 ;
307 [label="analyticsProperty.added <= 20211027.0\nsquared_error = 3973988018.595\nsamples = 22\nvalue = 413181.364", fillcolor="#efb082"] ;
306 -> 307 ;
308 [label="squared_error = 0.0\nsamples = 1\nvalue = 575000.0", fillcolor="#e68743"] ;
307 -> 308 ;
309 [label="analyticsProperty.imageCount <= 10.5\nsquared_error = 2856930841.156\nsamples = 21\nvalue = 405475.714", fillcolor="#efb285"] ;
307 -> 309 ;
310 [label="bathrooms_model <= 1.5\nsquared_error = 2264788463.314\nsamples = 13\nvalue = 384230.385", fillcolor="#f0b78e"] ;
309 -> 310 ;
311 [label="squared_error = 1345820835.243\nsamples = 12\nvalue = 374999.583", fillcolor="#f1b991"] ;
310 -> 311 ;
312 [label="squared_error = 0.0\nsamples = 1\nvalue = 495000.0", fillcolor="#ea9b62"] ;
310 -> 312 ;
313 [label="analyticsProperty.added <= 20220359.0\nsquared_error = 1893812502.734\nsamples = 8\nvalue = 439999.375", fillcolor="#eda978"] ;
309 -> 313 ;
314 [label="squared_error = 384038004.0\nsamples = 5\nvalue = 408999.0", fillcolor="#efb184"] ;
313 -> 314 ;
315 [label="squared_error = 138888888.889\nsamples = 3\nvalue = 491666.667", fillcolor="#eb9c64"] ;
313 -> 315 ;
316 [label="distance_to_any_train <= 0.3\nsquared_error = 2256250000.0\nsamples = 2\nvalue = 547500.0", fillcolor="#e88e4e"] ;
306 -> 316 ;
317 [label="squared_error = 0.0\nsamples = 1\nvalue = 500000.0", fillcolor="#ea9a60"] ;
316 -> 317 ;
318 [label="squared_error = 0.0\nsamples = 1\nvalue = 595000.0", fillcolor="#e5823b"] ;
316 -> 318 ;
319 [label="location.longitude <= -0.043\nsquared_error = 6628229421.07\nsamples = 57\nvalue = 367447.351", fillcolor="#f1bb94"] ;
305 -> 319 ;
320 [label="location.longitude <= -0.056\nsquared_error = 7071999645.558\nsamples = 46\nvalue = 381076.087", fillcolor="#f0b88f"] ;
319 -> 320 ;
321 [label="distance_to_any_train <= 0.2\nsquared_error = 1422222222.222\nsamples = 3\nvalue = 253333.333", fillcolor="#f7d8c1"] ;
320 -> 321 ;
322 [label="squared_error = 0.0\nsamples = 1\nvalue = 200000.0", fillcolor="#fae5d6"] ;
321 -> 322 ;
323 [label="squared_error = 0.0\nsamples = 2\nvalue = 280000.0", fillcolor="#f5d1b7"] ;
321 -> 323 ;
324 [label="analyticsProperty.added <= 20211165.0\nsquared_error = 6248261492.699\nsamples = 43\nvalue = 389988.372", fillcolor="#f0b58b"] ;
320 -> 324 ;
325 [label="analyticsProperty.added <= 20210563.0\nsquared_error = 5027272727.273\nsamples = 11\nvalue = 440000.0", fillcolor="#eda978"] ;
324 -> 325 ;
326 [label="squared_error = 756250000.0\nsamples = 2\nvalue = 322500.0", fillcolor="#f3c6a6"] ;
325 -> 326 ;
327 [label="squared_error = 2226543209.877\nsamples = 9\nvalue = 466111.111", fillcolor="#eca26e"] ;
325 -> 327 ;
328 [label="analyticsProperty.added <= 20211207.0\nsquared_error = 5512654052.734\nsamples = 32\nvalue = 372796.875", fillcolor="#f1ba92"] ;
324 -> 328 ;
329 [label="squared_error = 0.0\nsamples = 1\nvalue = 214500.0", fillcolor="#f9e1d0"] ;
328 -> 329 ;
330 [label="squared_error = 4856087408.949\nsamples = 31\nvalue = 377903.226", fillcolor="#f0b890"] ;
328 -> 330 ;
331 [label="location.latitude <= 51.553\nsquared_error = 747531652.975\nsamples = 11\nvalue = 310454.455", fillcolor="#f4c9ab"] ;
319 -> 331 ;
332 [label="location.latitude <= 51.549\nsquared_error = 200000000.0\nsamples = 9\nvalue = 321666.667", fillcolor="#f3c7a6"] ;
331 -> 332 ;
333 [label="analyticsProperty.imageCount <= 10.5\nsquared_error = 86805555.556\nsamples = 6\nvalue = 329166.667", fillcolor="#f3c5a3"] ;
332 -> 333 ;
334 [label="squared_error = 29687500.0\nsamples = 4\nvalue = 323750.0", fillcolor="#f3c6a5"] ;
333 -> 334 ;
335 [label="squared_error = 25000000.0\nsamples = 2\nvalue = 340000.0", fillcolor="#f2c29f"] ;
333 -> 335 ;
336 [label="location.latitude <= 51.552\nsquared_error = 88888888.889\nsamples = 3\nvalue = 306666.667", fillcolor="#f4caac"] ;
332 -> 336 ;
337 [label="squared_error = 0.0\nsamples = 2\nvalue = 300000.0", fillcolor="#f4ccaf"] ;
336 -> 337 ;
338 [label="squared_error = 0.0\nsamples = 1\nvalue = 320000.0", fillcolor="#f3c7a7"] ;
336 -> 338 ;
339 [label="analyticsProperty.added <= 20206020.0\nsquared_error = 100010000.25\nsamples = 2\nvalue = 259999.5", fillcolor="#f7d6be"] ;
331 -> 339 ;
340 [label="squared_error = 0.0\nsamples = 1\nvalue = 270000.0", fillcolor="#f6d3bb"] ;
339 -> 340 ;
341 [label="squared_error = 0.0\nsamples = 1\nvalue = 249999.0", fillcolor="#f7d8c2"] ;
339 -> 341 ;
342 [label="distance_to_any_train <= 0.5\nsquared_error = 143055555.556\nsamples = 3\nvalue = 204166.667", fillcolor="#f9e4d4"] ;
304 -> 342 ;
343 [label="squared_error = 0.0\nsamples = 1\nvalue = 187500.0", fillcolor="#fae8db"] ;
342 -> 343 ;
344 [label="propertySubType_Not Specified <= 0.5\nsquared_error = 6250000.0\nsamples = 2\nvalue = 212500.0", fillcolor="#f9e2d1"] ;
342 -> 344 ;
345 [label="squared_error = 0.0\nsamples = 1\nvalue = 215000.0", fillcolor="#f9e1d0"] ;
344 -> 345 ;
346 [label="squared_error = 0.0\nsamples = 1\nvalue = 210000.0", fillcolor="#f9e2d2"] ;
344 -> 346 ;
347 [label="location.latitude <= 51.478\nsquared_error = 10891556125.883\nsamples = 754\nvalue = 410872.326", fillcolor="#efb083"] ;
3 -> 347 ;
348 [label="location.longitude <= -0.147\nsquared_error = 8698802033.61\nsamples = 584\nvalue = 383221.036", fillcolor="#f0b78e"] ;
347 -> 348 ;
349 [label="location.latitude <= 51.457\nsquared_error = 7891442007.752\nsamples = 536\nvalue = 391357.715", fillcolor="#f0b58b"] ;
348 -> 349 ;
350 [label="distance_to_any_train <= 0.35\nsquared_error = 5995444300.255\nsamples = 299\nvalue = 373695.465", fillcolor="#f1ba92"] ;
349 -> 350 ;
351 [label="analyticsProperty.added <= 20220405.0\nsquared_error = 5972079914.256\nsamples = 155\nvalue = 391852.258", fillcolor="#f0b58b"] ;
350 -> 351 ;
352 [label="analyticsProperty.imageCount <= 12.5\nsquared_error = 4316148627.181\nsamples = 66\nvalue = 370103.03", fillcolor="#f1ba93"] ;
351 -> 352 ;
353 [label="location.latitude <= 51.45\nsquared_error = 3518264770.408\nsamples = 56\nvalue = 361192.857", fillcolor="#f1bd97"] ;
352 -> 353 ;
354 [label="location.longitude <= -0.156\nsquared_error = 3408734244.521\nsamples = 51\nvalue = 355035.294", fillcolor="#f2be99"] ;
353 -> 354 ;
355 [label="squared_error = 3429307954.545\nsamples = 44\nvalue = 362200.0", fillcolor="#f1bc96"] ;
354 -> 355 ;
356 [label="squared_error = 928571428.571\nsamples = 7\nvalue = 310000.0", fillcolor="#f4c9ab"] ;
354 -> 356 ;
357 [label="location.latitude <= 51.452\nsquared_error = 304000000.0\nsamples = 5\nvalue = 424000.0", fillcolor="#eead7e"] ;
353 -> 357 ;
358 [label="squared_error = 0.0\nsamples = 1\nvalue = 395000.0", fillcolor="#f0b489"] ;
357 -> 358 ;
359 [label="squared_error = 117187500.0\nsamples = 4\nvalue = 431250.0", fillcolor="#eeab7b"] ;
357 -> 359 ;
360 [label="location.longitude <= -0.228\nsquared_error = 5850000000.0\nsamples = 10\nvalue = 420000.0", fillcolor="#eeae80"] ;
352 -> 360 ;
361 [label="squared_error = 0.0\nsamples = 1\nvalue = 250000.0", fillcolor="#f7d8c2"] ;
360 -> 361 ;
362 [label="analyticsProperty.added <= 20210864.0\nsquared_error = 2932098765.432\nsamples = 9\nvalue = 438888.889", fillcolor="#eda978"] ;
360 -> 362 ;
363 [label="squared_error = 0.0\nsamples = 1\nvalue = 345000.0", fillcolor="#f2c19d"] ;
362 -> 363 ;
364 [label="squared_error = 2058984375.0\nsamples = 8\nvalue = 450625.0", fillcolor="#eda674"] ;
362 -> 364 ;
365 [label="location.latitude <= 51.456\nsquared_error = 6589155365.484\nsamples = 89\nvalue = 407980.899", fillcolor="#efb184"] ;
351 -> 365 ;
366 [label="location.latitude <= 51.43\nsquared_error = 6052358545.382\nsamples = 87\nvalue = 411813.793", fillcolor="#efb083"] ;
365 -> 366 ;
367 [label="location.longitude <= -0.193\nsquared_error = 5701539940.828\nsamples = 52\nvalue = 395807.692", fillcolor="#f0b489"] ;
366 -> 367 ;
368 [label="squared_error = 5301750297.265\nsamples = 29\nvalue = 426793.103", fillcolor="#eeac7d"] ;
367 -> 368 ;
369 [label="squared_error = 3468714555.766\nsamples = 23\nvalue = 356739.13", fillcolor="#f2be98"] ;
367 -> 369 ;
370 [label="location.latitude <= 51.446\nsquared_error = 5627429967.347\nsamples = 35\nvalue = 435594.286", fillcolor="#edaa7a"] ;
366 -> 370 ;
371 [label="squared_error = 4775422888.314\nsamples = 26\nvalue = 452340.385", fillcolor="#eda673"] ;
370 -> 371 ;
372 [label="squared_error = 4938253333.333\nsamples = 9\nvalue = 387216.667", fillcolor="#f0b68d"] ;
370 -> 372 ;
373 [label="location.longitude <= -0.215\nsquared_error = 1501562500.0\nsamples = 2\nvalue = 241250.0", fillcolor="#f7dbc6"] ;
365 -> 373 ;
374 [label="squared_error = 0.0\nsamples = 1\nvalue = 202500.0", fillcolor="#f9e4d5"] ;
373 -> 374 ;
375 [label="squared_error = 0.0\nsamples = 1\nvalue = 280000.0", fillcolor="#f5d1b7"] ;
373 -> 375 ;
376 [label="analyticsProperty.added <= 20220702.0\nsquared_error = 5283782304.948\nsamples = 144\nvalue = 354151.694", fillcolor="#f2be9a"] ;
350 -> 376 ;
377 [label="location.latitude <= 51.456\nsquared_error = 4943050968.08\nsamples = 142\nvalue = 352027.07", fillcolor="#f2bf9a"] ;
376 -> 377 ;
378 [label="analyticsProperty.imageCount <= 5.5\nsquared_error = 4857217331.56\nsamples = 132\nvalue = 356120.03", fillcolor="#f2be99"] ;
377 -> 378 ;
379 [label="location.longitude <= -0.197\nsquared_error = 2410000000.0\nsamples = 11\nvalue = 303000.0", fillcolor="#f4cbae"] ;
378 -> 379 ;
380 [label="squared_error = 3328666666.667\nsamples = 3\nvalue = 246000.0", fillcolor="#f7d9c4"] ;
379 -> 380 ;
381 [label="squared_error = 390234375.0\nsamples = 8\nvalue = 324375.0", fillcolor="#f3c6a5"] ;
379 -> 381 ;
382 [label="floorplan_count <= 10.5\nsquared_error = 4799849887.051\nsamples = 121\nvalue = 360949.124", fillcolor="#f1bd97"] ;
378 -> 382 ;
383 [label="squared_error = 4653171149.916\nsamples = 120\nvalue = 359707.033", fillcolor="#f1bd97"] ;
382 -> 383 ;
384 [label="squared_error = 0.0\nsamples = 1\nvalue = 510000.0", fillcolor="#ea975c"] ;
382 -> 384 ;
385 [label="location.latitude <= 51.457\nsquared_error = 2936000000.0\nsamples = 10\nvalue = 298000.0", fillcolor="#f5ccb0"] ;
377 -> 385 ;
386 [label="distance_to_any_train <= 0.45\nsquared_error = 366000000.0\nsamples = 5\nvalue = 248000.0", fillcolor="#f7d9c3"] ;
385 -> 386 ;
387 [label="squared_error = 272222222.222\nsamples = 3\nvalue = 238333.333", fillcolor="#f8dbc7"] ;
386 -> 387 ;
388 [label="squared_error = 156250000.0\nsamples = 2\nvalue = 262500.0", fillcolor="#f6d5bd"] ;
386 -> 388 ;
389 [label="location.longitude <= -0.196\nsquared_error = 506000000.0\nsamples = 5\nvalue = 348000.0", fillcolor="#f2c09c"] ;
385 -> 389 ;
390 [label="squared_error = 81250000.0\nsamples = 4\nvalue = 337500.0", fillcolor="#f3c3a0"] ;
389 -> 390 ;
391 [label="squared_error = 0.0\nsamples = 1\nvalue = 390000.0", fillcolor="#f0b58b"] ;
389 -> 391 ;
392 [label="propertySubType_Flat <= 0.5\nsquared_error = 6400000000.0\nsamples = 2\nvalue = 505000.0", fillcolor="#ea995e"] ;
376 -> 392 ;
393 [label="squared_error = 0.0\nsamples = 1\nvalue = 585000.0", fillcolor="#e6853f"] ;
392 -> 393 ;
394 [label="squared_error = 0.0\nsamples = 1\nvalue = 425000.0", fillcolor="#eead7e"] ;
392 -> 394 ;
395 [label="tenure.tenureType_SHARE_OF_FREEHOLD <= 0.5\nsquared_error = 9393354437.54\nsamples = 237\nvalue = 413640.468", fillcolor="#efb082"] ;
349 -> 395 ;
396 [label="analyticsProperty.added <= 20220629.0\nsquared_error = 9589334052.965\nsamples = 201\nvalue = 405387.766", fillcolor="#efb285"] ;
395 -> 396 ;
397 [label="propertySubType_Apartment <= 0.5\nsquared_error = 8669743252.812\nsamples = 188\nvalue = 410526.548", fillcolor="#efb083"] ;
396 -> 397 ;
398 [label="borough_name_Hammersmith and Fulham <= 0.5\nsquared_error = 8403321203.738\nsamples = 139\nvalue = 398090.59", fillcolor="#efb388"] ;
397 -> 398 ;
399 [label="location.latitude <= 51.463\nsquared_error = 8566157044.915\nsamples = 102\nvalue = 383688.647", fillcolor="#f0b78e"] ;
398 -> 399 ;
400 [label="squared_error = 6435678708.688\nsamples = 32\nvalue = 418279.5", fillcolor="#eeae80"] ;
399 -> 400 ;
401 [label="squared_error = 8743056431.701\nsamples = 70\nvalue = 367875.686", fillcolor="#f1bb94"] ;
399 -> 401 ;
402 [label="location.longitude <= -0.184\nsquared_error = 5806326373.265\nsamples = 37\nvalue = 437793.243", fillcolor="#edaa79"] ;
398 -> 402 ;
403 [label="squared_error = 4157586996.528\nsamples = 36\nvalue = 444787.5", fillcolor="#eda876"] ;
402 -> 403 ;
404 [label="squared_error = 0.0\nsamples = 1\nvalue = 186000.0", fillcolor="#fae8dc"] ;
402 -> 404 ;
405 [label="analyticsProperty.imageCount <= 7.5\nsquared_error = 7742299301.894\nsamples = 49\nvalue = 445804.061", fillcolor="#eda876"] ;
397 -> 405 ;
406 [label="analyticsProperty.added <= 20220556.0\nsquared_error = 5747500306.122\nsamples = 14\nvalue = 373207.143", fillcolor="#f1ba92"] ;
405 -> 406 ;
407 [label="squared_error = 1930606686.391\nsamples = 13\nvalue = 355765.385", fillcolor="#f2be99"] ;
406 -> 407 ;
408 [label="squared_error = 0.0\nsamples = 1\nvalue = 599950.0", fillcolor="#e58139"] ;
406 -> 408 ;
409 [label="analyticsProperty.imageCount <= 14.5\nsquared_error = 5588843868.599\nsamples = 35\nvalue = 474842.829", fillcolor="#eba06a"] ;
405 -> 409 ;
410 [label="squared_error = 4926229520.323\nsamples = 31\nvalue = 465629.0", fillcolor="#eca36e"] ;
409 -> 410 ;
411 [label="squared_error = 4967187500.0\nsamples = 4\nvalue = 546250.0", fillcolor="#e88e4e"] ;
409 -> 411 ;
412 [label="location.latitude <= 51.462\nsquared_error = 16983471775.148\nsamples = 13\nvalue = 331073.077", fillcolor="#f3c4a3"] ;
396 -> 412 ;
413 [label="location.longitude <= -0.198\nsquared_error = 66015625.0\nsamples = 2\nvalue = 121875.0", fillcolor="#fef8f5"] ;
412 -> 413 ;
414 [label="squared_error = 0.0\nsamples = 1\nvalue = 113750.0", fillcolor="#fefaf8"] ;
413 -> 414 ;
415 [label="squared_error = 0.0\nsamples = 1\nvalue = 130000.0", fillcolor="#fdf6f2"] ;
413 -> 415 ;
416 [label="location.latitude <= 51.474\nsquared_error = 10655573553.719\nsamples = 11\nvalue = 369109.091", fillcolor="#f1bb94"] ;
412 -> 416 ;
417 [label="location.latitude <= 51.464\nsquared_error = 9005386666.667\nsamples = 9\nvalue = 396133.333", fillcolor="#f0b489"] ;
416 -> 417 ;
418 [label="squared_error = 0.0\nsamples = 1\nvalue = 525000.0", fillcolor="#e99456"] ;
417 -> 418 ;
419 [label="squared_error = 7795754375.0\nsamples = 8\nvalue = 380025.0", fillcolor="#f0b88f"] ;
417 -> 419 ;
420 [label="location.longitude <= -0.162\nsquared_error = 6250000.0\nsamples = 2\nvalue = 247500.0", fillcolor="#f7d9c3"] ;
416 -> 420 ;
421 [label="squared_error = 0.0\nsamples = 1\nvalue = 250000.0", fillcolor="#f7d8c2"] ;
420 -> 421 ;
422 [label="squared_error = 0.0\nsamples = 1\nvalue = 245000.0", fillcolor="#f7dac4"] ;
420 -> 422 ;
423 [label="analyticsProperty.imageCount <= 8.5\nsquared_error = 5795726271.219\nsamples = 36\nvalue = 459718.056", fillcolor="#eca470"] ;
395 -> 423 ;
424 [label="location.latitude <= 51.465\nsquared_error = 4833950617.284\nsamples = 18\nvalue = 432777.778", fillcolor="#eeab7b"] ;
423 -> 424 ;
425 [label="propertySubType_Apartment <= 0.5\nsquared_error = 2874793388.43\nsamples = 11\nvalue = 459545.455", fillcolor="#eca470"] ;
424 -> 425 ;
426 [label="analyticsProperty.added <= 20220258.0\nsquared_error = 992250000.0\nsamples = 10\nvalue = 445500.0", fillcolor="#eda876"] ;
425 -> 426 ;
427 [label="squared_error = 0.0\nsamples = 2\nvalue = 500000.0", fillcolor="#ea9a60"] ;
426 -> 427 ;
428 [label="squared_error = 312109375.0\nsamples = 8\nvalue = 431875.0", fillcolor="#eeab7b"] ;
426 -> 428 ;
429 [label="squared_error = 0.0\nsamples = 1\nvalue = 600000.0", fillcolor="#e58139"] ;
425 -> 429 ;
430 [label="location.latitude <= 51.474\nsquared_error = 5017346938.775\nsamples = 7\nvalue = 390714.286", fillcolor="#f0b58b"] ;
424 -> 430 ;
431 [label="analyticsProperty.imageCount <= 5.5\nsquared_error = 4688888888.889\nsamples = 3\nvalue = 328333.333", fillcolor="#f3c5a4"] ;
430 -> 431 ;
432 [label="squared_error = 0.0\nsamples = 1\nvalue = 425000.0", fillcolor="#eead7e"] ;
431 -> 432 ;
433 [label="squared_error = 25000000.0\nsamples = 2\nvalue = 280000.0", fillcolor="#f5d1b7"] ;
431 -> 433 ;
434 [label="propertySubType_Flat <= 0.5\nsquared_error = 156250000.0\nsamples = 4\nvalue = 437500.0", fillcolor="#edaa79"] ;
430 -> 434 ;
435 [label="squared_error = 0.0\nsamples = 1\nvalue = 450000.0", fillcolor="#eda674"] ;
434 -> 435 ;
436 [label="squared_error = 138888888.889\nsamples = 3\nvalue = 433333.333", fillcolor="#eeab7a"] ;
434 -> 436 ;
437 [label="propertySubType_Apartment <= 0.5\nsquared_error = 5305944791.667\nsamples = 18\nvalue = 486658.333", fillcolor="#eb9d65"] ;
423 -> 437 ;
438 [label="location.latitude <= 51.459\nsquared_error = 4300618524.306\nsamples = 12\nvalue = 515820.833", fillcolor="#e9965a"] ;
437 -> 438 ;
439 [label="analyticsProperty.imageCount <= 12.5\nsquared_error = 3274111666.667\nsamples = 3\nvalue = 446650.0", fillcolor="#eda775"] ;
438 -> 439 ;
440 [label="squared_error = 307125625.0\nsamples = 2\nvalue = 407475.0", fillcolor="#efb185"] ;
439 -> 440 ;
441 [label="squared_error = 0.0\nsamples = 1\nvalue = 525000.0", fillcolor="#e99456"] ;
439 -> 441 ;
442 [label="analyticsProperty.added <= 20220461.0\nsquared_error = 2516296728.395\nsamples = 9\nvalue = 538877.778", fillcolor="#e89051"] ;
438 -> 442 ;
443 [label="squared_error = 1351400400.0\nsamples = 5\nvalue = 569990.0", fillcolor="#e78845"] ;
442 -> 443 ;
444 [label="squared_error = 1250000468.75\nsamples = 4\nvalue = 499987.5", fillcolor="#ea9a60"] ;
442 -> 444 ;
445 [label="location.latitude <= 51.468\nsquared_error = 2213888888.889\nsamples = 6\nvalue = 428333.333", fillcolor="#eeac7c"] ;
437 -> 445 ;
446 [label="distance_to_any_train <= 0.45\nsquared_error = 617187500.0\nsamples = 4\nvalue = 398750.0", fillcolor="#efb388"] ;
445 -> 446 ;
447 [label="squared_error = 66666666.667\nsamples = 3\nvalue = 385000.0", fillcolor="#f0b78d"] ;
446 -> 447 ;
448 [label="squared_error = 0.0\nsamples = 1\nvalue = 440000.0", fillcolor="#eda978"] ;
446 -> 448 ;
449 [label="borough_name_Hammersmith and Fulham <= 0.5\nsquared_error = 156250000.0\nsamples = 2\nvalue = 487500.0", fillcolor="#eb9d65"] ;
445 -> 449 ;
450 [label="squared_error = 0.0\nsamples = 1\nvalue = 500000.0", fillcolor="#ea9a60"] ;
449 -> 450 ;
451 [label="squared_error = 0.0\nsamples = 1\nvalue = 475000.0", fillcolor="#eba06a"] ;
449 -> 451 ;
452 [label="location.latitude <= 51.477\nsquared_error = 8719564295.79\nsamples = 48\nvalue = 292361.458", fillcolor="#f5ceb2"] ;
348 -> 452 ;
453 [label="location.latitude <= 51.414\nsquared_error = 6377027001.972\nsamples = 39\nvalue = 320919.231", fillcolor="#f3c7a7"] ;
452 -> 453 ;
454 [label="tenure.tenureType_SHARE_OF_FREEHOLD <= 0.5\nsquared_error = 1056172839.506\nsamples = 9\nvalue = 217777.778", fillcolor="#f9e0cf"] ;
453 -> 454 ;
455 [label="distance_to_any_train <= 0.65\nsquared_error = 542187500.0\nsamples = 8\nvalue = 226250.0", fillcolor="#f8decc"] ;
454 -> 455 ;
456 [label="analyticsProperty.imageCount <= 8.0\nsquared_error = 136805555.556\nsamples = 6\nvalue = 214166.667", fillcolor="#f9e1d0"] ;
455 -> 456 ;
457 [label="analyticsProperty.added <= 20215668.0\nsquared_error = 22222222.222\nsamples = 3\nvalue = 203333.333", fillcolor="#f9e4d5"] ;
456 -> 457 ;
458 [label="squared_error = 0.0\nsamples = 2\nvalue = 200000.0", fillcolor="#fae5d6"] ;
457 -> 458 ;
459 [label="squared_error = 0.0\nsamples = 1\nvalue = 210000.0", fillcolor="#f9e2d2"] ;
457 -> 459 ;
460 [label="analyticsProperty.added <= 20220309.0\nsquared_error = 16666666.667\nsamples = 3\nvalue = 225000.0", fillcolor="#f8dfcc"] ;
456 -> 460 ;
461 [label="squared_error = 6250000.0\nsamples = 2\nvalue = 227500.0", fillcolor="#f8decb"] ;
460 -> 461 ;
462 [label="squared_error = 0.0\nsamples = 1\nvalue = 220000.0", fillcolor="#f9e0ce"] ;
460 -> 462 ;
463 [label="location.longitude <= -0.138\nsquared_error = 6250000.0\nsamples = 2\nvalue = 262500.0", fillcolor="#f6d5bd"] ;
455 -> 463 ;
464 [label="squared_error = 0.0\nsamples = 1\nvalue = 265000.0", fillcolor="#f6d5bd"] ;
463 -> 464 ;
465 [label="squared_error = 0.0\nsamples = 1\nvalue = 260000.0", fillcolor="#f7d6be"] ;
463 -> 465 ;
466 [label="squared_error = 0.0\nsamples = 1\nvalue = 150000.0", fillcolor="#fcf1ea"] ;
454 -> 466 ;
467 [label="location.latitude <= 51.432\nsquared_error = 3824401113.889\nsamples = 30\nvalue = 351861.667", fillcolor="#f2bf9a"] ;
453 -> 467 ;
468 [label="tenure.tenureType_LEASEHOLD <= 0.5\nsquared_error = 1794116155.556\nsamples = 15\nvalue = 318063.333", fillcolor="#f4c7a8"] ;
467 -> 468 ;
469 [label="analyticsProperty.imageCount <= 7.5\nsquared_error = 1110000400.0\nsamples = 5\nvalue = 349990.0", fillcolor="#f2bf9b"] ;
468 -> 469 ;
470 [label="location.latitude <= 51.424\nsquared_error = 100000000.0\nsamples = 2\nvalue = 385000.0", fillcolor="#f0b78d"] ;
469 -> 470 ;
471 [label="squared_error = 0.0\nsamples = 1\nvalue = 375000.0", fillcolor="#f1b991"] ;
470 -> 471 ;
472 [label="squared_error = 0.0\nsamples = 1\nvalue = 395000.0", fillcolor="#f0b489"] ;
470 -> 472 ;
473 [label="location.latitude <= 51.427\nsquared_error = 421445000.0\nsamples = 3\nvalue = 326650.0", fillcolor="#f3c5a4"] ;
469 -> 473 ;
474 [label="squared_error = 99500625.0\nsamples = 2\nvalue = 339975.0", fillcolor="#f2c29f"] ;
473 -> 474 ;
475 [label="squared_error = 0.0\nsamples = 1\nvalue = 300000.0", fillcolor="#f4ccaf"] ;
473 -> 475 ;
476 [label="analyticsProperty.added <= 20220164.0\nsquared_error = 1371690000.0\nsamples = 10\nvalue = 302100.0", fillcolor="#f4cbae"] ;
468 -> 476 ;
477 [label="analyticsProperty.added <= 20215522.0\nsquared_error = 225000000.0\nsamples = 2\nvalue = 265000.0", fillcolor="#f6d5bd"] ;
476 -> 477 ;
478 [label="squared_error = 0.0\nsamples = 1\nvalue = 250000.0", fillcolor="#f7d8c2"] ;
477 -> 478 ;
479 [label="squared_error = 0.0\nsamples = 1\nvalue = 280000.0", fillcolor="#f5d1b7"] ;
477 -> 479 ;
480 [label="location.latitude <= 51.424\nsquared_error = 1228234375.0\nsamples = 8\nvalue = 311375.0", fillcolor="#f4c9aa"] ;
476 -> 480 ;
481 [label="squared_error = 0.0\nsamples = 1\nvalue = 375000.0", fillcolor="#f1b991"] ;
480 -> 481 ;
482 [label="squared_error = 742775510.204\nsamples = 7\nvalue = 302285.714", fillcolor="#f4cbae"] ;
480 -> 482 ;
483 [label="analyticsProperty.added <= 20220664.0\nsquared_error = 3570031400.0\nsamples = 15\nvalue = 385660.0", fillcolor="#f0b78d"] ;
467 -> 483 ;
484 [label="location.latitude <= 51.441\nsquared_error = 2339143163.265\nsamples = 14\nvalue = 375707.143", fillcolor="#f1b991"] ;
483 -> 484 ;
485 [label="location.latitude <= 51.436\nsquared_error = 1054687500.0\nsamples = 4\nvalue = 418750.0", fillcolor="#eeae80"] ;
484 -> 485 ;
486 [label="squared_error = 0.0\nsamples = 1\nvalue = 375000.0", fillcolor="#f1b991"] ;
485 -> 486 ;
487 [label="squared_error = 555555555.556\nsamples = 3\nvalue = 433333.333", fillcolor="#eeab7a"] ;
485 -> 487 ;
488 [label="propertySubType_Apartment <= 0.5\nsquared_error = 1815420400.0\nsamples = 10\nvalue = 358490.0", fillcolor="#f1bd98"] ;
484 -> 488 ;
489 [label="squared_error = 1575184183.673\nsamples = 7\nvalue = 374271.429", fillcolor="#f1b992"] ;
488 -> 489 ;
490 [label="squared_error = 438888888.889\nsamples = 3\nvalue = 321666.667", fillcolor="#f3c7a6"] ;
488 -> 490 ;
491 [label="squared_error = 0.0\nsamples = 1\nvalue = 525000.0", fillcolor="#e99456"] ;
483 -> 491 ;
492 [label="analyticsProperty.imageCount <= 8.5\nsquared_error = 22376543.21\nsamples = 9\nvalue = 168611.111", fillcolor="#fbede2"] ;
452 -> 492 ;
493 [label="squared_error = 0.0\nsamples = 1\nvalue = 161250.0", fillcolor="#fcefe5"] ;
492 -> 493 ;
494 [label="squared_error = 17553710.938\nsamples = 8\nvalue = 169531.25", fillcolor="#fbede2"] ;
492 -> 494 ;
495 [label="location.latitude <= 51.488\nsquared_error = 6774546659.03\nsamples = 170\nvalue = 505862.641", fillcolor="#ea995e"] ;
347 -> 495 ;
496 [label="borough_name_Westminster <= 0.5\nsquared_error = 7410832604.693\nsamples = 93\nvalue = 484558.591", fillcolor="#eb9e66"] ;
495 -> 496 ;
497 [label="location.longitude <= -0.19\nsquared_error = 5586492862.932\nsamples = 78\nvalue = 495756.397", fillcolor="#ea9b62"] ;
496 -> 497 ;
498 [label="propertySubType_Apartment <= 0.5\nsquared_error = 1892819864.755\nsamples = 31\nvalue = 458225.774", fillcolor="#eca471"] ;
497 -> 498 ;
499 [label="location.longitude <= -0.2\nsquared_error = 1134014625.896\nsamples = 21\nvalue = 470714.238", fillcolor="#eca16c"] ;
498 -> 499 ;
500 [label="location.latitude <= 51.481\nsquared_error = 513609467.456\nsamples = 13\nvalue = 483076.923", fillcolor="#eb9e67"] ;
499 -> 500 ;
501 [label="location.latitude <= 51.48\nsquared_error = 345061728.395\nsamples = 9\nvalue = 472777.778", fillcolor="#eca16b"] ;
500 -> 501 ;
502 [label="squared_error = 347222222.222\nsamples = 6\nvalue = 466666.667", fillcolor="#eca26d"] ;
501 -> 502 ;
503 [label="squared_error = 116666666.667\nsamples = 3\nvalue = 485000.0", fillcolor="#eb9e66"] ;
501 -> 503 ;
504 [label="distance_to_any_train <= 0.25\nsquared_error = 117187500.0\nsamples = 4\nvalue = 506250.0", fillcolor="#ea985e"] ;
500 -> 504 ;
505 [label="squared_error = 0.0\nsamples = 1\nvalue = 525000.0", fillcolor="#e99456"] ;
504 -> 505 ;
506 [label="squared_error = 0.0\nsamples = 3\nvalue = 500000.0", fillcolor="#ea9a60"] ;
504 -> 506 ;
507 [label="location.longitude <= -0.198\nsquared_error = 1490232031.359\nsamples = 8\nvalue = 450624.875", fillcolor="#eda674"] ;
499 -> 507 ;
508 [label="location.longitude <= -0.2\nsquared_error = 742187500.0\nsamples = 4\nvalue = 418750.0", fillcolor="#eeae80"] ;
507 -> 508 ;
509 [label="squared_error = 0.0\nsamples = 1\nvalue = 375000.0", fillcolor="#f1b991"] ;
508 -> 509 ;
510 [label="squared_error = 138888888.889\nsamples = 3\nvalue = 433333.333", fillcolor="#eeab7a"] ;
508 -> 510 ;
511 [label="location.latitude <= 51.48\nsquared_error = 206261250.188\nsamples = 4\nvalue = 482499.75", fillcolor="#eb9e67"] ;
507 -> 511 ;
512 [label="squared_error = 0.0\nsamples = 1\nvalue = 459999.0", fillcolor="#eca470"] ;
511 -> 512 ;
513 [label="squared_error = 50000000.0\nsamples = 3\nvalue = 490000.0", fillcolor="#eb9c64"] ;
511 -> 513 ;
514 [label="location.latitude <= 51.479\nsquared_error = 2471000000.0\nsamples = 10\nvalue = 432000.0", fillcolor="#eeab7b"] ;
498 -> 514 ;
515 [label="squared_error = 0.0\nsamples = 2\nvalue = 350000.0", fillcolor="#f2bf9b"] ;
514 -> 515 ;
516 [label="analyticsProperty.imageCount <= 6.0\nsquared_error = 987500000.0\nsamples = 8\nvalue = 452500.0", fillcolor="#eda673"] ;
514 -> 516 ;
517 [label="distance_to_any_train <= 0.55\nsquared_error = 400000000.0\nsamples = 2\nvalue = 405000.0", fillcolor="#efb286"] ;
516 -> 517 ;
518 [label="squared_error = 0.0\nsamples = 1\nvalue = 385000.0", fillcolor="#f0b78d"] ;
517 -> 518 ;
519 [label="squared_error = 0.0\nsamples = 1\nvalue = 425000.0", fillcolor="#eead7e"] ;
517 -> 519 ;
520 [label="tenure.tenureType_SHARE_OF_FREEHOLD <= 0.5\nsquared_error = 180555555.556\nsamples = 6\nvalue = 468333.333", fillcolor="#eca26d"] ;
516 -> 520 ;
521 [label="squared_error = 0.0\nsamples = 2\nvalue = 450000.0", fillcolor="#eda674"] ;
520 -> 521 ;
522 [label="squared_error = 18750000.0\nsamples = 4\nvalue = 477500.0", fillcolor="#eba069"] ;
520 -> 522 ;
523 [label="analyticsProperty.imageCount <= 4.5\nsquared_error = 6480930737.89\nsamples = 47\nvalue = 520510.638", fillcolor="#e99558"] ;
497 -> 523 ;
524 [label="squared_error = 0.0\nsamples = 1\nvalue = 225000.0", fillcolor="#f8dfcc"] ;
523 -> 524 ;
525 [label="location.longitude <= -0.139\nsquared_error = 4682147920.605\nsamples = 46\nvalue = 526934.783", fillcolor="#e99356"] ;
523 -> 525 ;
526 [label="location.longitude <= -0.144\nsquared_error = 4606882653.061\nsamples = 42\nvalue = 520214.286", fillcolor="#e99558"] ;
525 -> 526 ;
527 [label="distance_to_any_train <= 0.25\nsquared_error = 3803824375.0\nsamples = 40\nvalue = 527225.0", fillcolor="#e99356"] ;
526 -> 527 ;
528 [label="squared_error = 1017265306.122\nsamples = 7\nvalue = 574142.857", fillcolor="#e68743"] ;
527 -> 528 ;
529 [label="squared_error = 3828925619.835\nsamples = 33\nvalue = 517272.727", fillcolor="#e99659"] ;
527 -> 529 ;
530 [label="analyticsProperty.imageCount <= 9.0\nsquared_error = 25000000.0\nsamples = 2\nvalue = 380000.0", fillcolor="#f0b88f"] ;
526 -> 530 ;
531 [label="squared_error = 0.0\nsamples = 1\nvalue = 385000.0", fillcolor="#f0b78d"] ;
530 -> 531 ;
532 [label="squared_error = 0.0\nsamples = 1\nvalue = 375000.0", fillcolor="#f1b991"] ;
530 -> 532 ;
533 [label="location.latitude <= 51.482\nsquared_error = 18750000.0\nsamples = 4\nvalue = 597500.0", fillcolor="#e5823a"] ;
525 -> 533 ;
534 [label="squared_error = 0.0\nsamples = 1\nvalue = 590000.0", fillcolor="#e6833d"] ;
533 -> 534 ;
535 [label="squared_error = 0.0\nsamples = 3\nvalue = 600000.0", fillcolor="#e58139"] ;
533 -> 535 ;
536 [label="analyticsProperty.added <= 20220462.0\nsquared_error = 12854797933.333\nsamples = 15\nvalue = 426330.0", fillcolor="#eeac7d"] ;
496 -> 536 ;
537 [label="location.longitude <= -0.146\nsquared_error = 14433333333.333\nsamples = 9\nvalue = 378333.333", fillcolor="#f0b890"] ;
536 -> 537 ;
538 [label="floorplan_count <= 6.5\nsquared_error = 3906250000.0\nsamples = 2\nvalue = 187500.0", fillcolor="#fae8db"] ;
537 -> 538 ;
539 [label="squared_error = 0.0\nsamples = 1\nvalue = 125000.0", fillcolor="#fdf8f3"] ;
538 -> 539 ;
540 [label="squared_error = 0.0\nsamples = 1\nvalue = 250000.0", fillcolor="#f7d8c2"] ;
538 -> 540 ;
541 [label="analyticsProperty.imageCount <= 8.5\nsquared_error = 4063265306.122\nsamples = 7\nvalue = 432857.143", fillcolor="#eeab7b"] ;
537 -> 541 ;
542 [label="location.latitude <= 51.486\nsquared_error = 239583333.333\nsamples = 6\nvalue = 407500.0", fillcolor="#efb185"] ;
541 -> 542 ;
543 [label="location.longitude <= -0.138\nsquared_error = 117187500.0\nsamples = 4\nvalue = 416250.0", fillcolor="#eeaf81"] ;
542 -> 543 ;
544 [label="squared_error = 0.0\nsamples = 3\nvalue = 410000.0", fillcolor="#efb084"] ;
543 -> 544 ;
545 [label="squared_error = 0.0\nsamples = 1\nvalue = 435000.0", fillcolor="#eeaa7a"] ;
543 -> 545 ;
546 [label="location.longitude <= -0.142\nsquared_error = 25000000.0\nsamples = 2\nvalue = 390000.0", fillcolor="#f0b58b"] ;
542 -> 546 ;
547 [label="squared_error = 0.0\nsamples = 1\nvalue = 385000.0", fillcolor="#f0b78d"] ;
546 -> 547 ;
548 [label="squared_error = 0.0\nsamples = 1\nvalue = 395000.0", fillcolor="#f0b489"] ;
546 -> 548 ;
549 [label="squared_error = 0.0\nsamples = 1\nvalue = 585000.0", fillcolor="#e6853f"] ;
541 -> 549 ;
550 [label="location.latitude <= 51.487\nsquared_error = 1848194791.667\nsamples = 6\nvalue = 498325.0", fillcolor="#ea9a61"] ;
536 -> 550 ;
551 [label="analyticsProperty.imageCount <= 9.5\nsquared_error = 769562968.75\nsamples = 4\nvalue = 472487.5", fillcolor="#eca16b"] ;
550 -> 551 ;
552 [label="location.longitude <= -0.141\nsquared_error = 25250625.0\nsamples = 2\nvalue = 444975.0", fillcolor="#eda876"] ;
551 -> 552 ;
553 [label="squared_error = 0.0\nsamples = 1\nvalue = 439950.0", fillcolor="#eda978"] ;
552 -> 553 ;
554 [label="squared_error = 0.0\nsamples = 1\nvalue = 450000.0", fillcolor="#eda674"] ;
552 -> 554 ;
555 [label="squared_error = 0.0\nsamples = 2\nvalue = 500000.0", fillcolor="#ea9a60"] ;
551 -> 555 ;
556 [label="squared_error = 0.0\nsamples = 2\nvalue = 550000.0", fillcolor="#e88d4d"] ;
550 -> 556 ;
557 [label="tenure.tenureType_SHARE_OF_FREEHOLD <= 0.5\nsquared_error = 4795796386.406\nsamples = 77\nvalue = 531593.506", fillcolor="#e99254"] ;
495 -> 557 ;
558 [label="analyticsProperty.imageCount <= 5.5\nsquared_error = 5727113806.612\nsamples = 55\nvalue = 522634.545", fillcolor="#e99457"] ;
557 -> 558 ;
559 [label="location.longitude <= -0.145\nsquared_error = 862244897.959\nsamples = 7\nvalue = 566428.571", fillcolor="#e78946"] ;
558 -> 559 ;
560 [label="distance_to_any_train <= 0.15\nsquared_error = 442187500.0\nsamples = 4\nvalue = 586250.0", fillcolor="#e6843e"] ;
559 -> 560 ;
561 [label="squared_error = 0.0\nsamples = 1\nvalue = 550000.0", fillcolor="#e88d4d"] ;
560 -> 561 ;
562 [label="location.longitude <= -0.188\nsquared_error = 5555555.555\nsamples = 3\nvalue = 598333.333", fillcolor="#e5813a"] ;
560 -> 562 ;
563 [label="squared_error = 0.0\nsamples = 1\nvalue = 595000.0", fillcolor="#e5823b"] ;
562 -> 563 ;
564 [label="squared_error = 0.0\nsamples = 2\nvalue = 600000.0", fillcolor="#e58139"] ;
562 -> 564 ;
565 [label="analyticsProperty.imageCount <= 4.5\nsquared_error = 200000000.0\nsamples = 3\nvalue = 540000.0", fillcolor="#e89051"] ;
559 -> 565 ;
566 [label="squared_error = 0.0\nsamples = 2\nvalue = 550000.0", fillcolor="#e88d4d"] ;
565 -> 566 ;
567 [label="squared_error = 0.0\nsamples = 1\nvalue = 520000.0", fillcolor="#e99558"] ;
565 -> 567 ;
568 [label="location.latitude <= 51.493\nsquared_error = 6116088641.493\nsamples = 48\nvalue = 516247.917", fillcolor="#e9965a"] ;
558 -> 568 ;
569 [label="analyticsProperty.imageCount <= 12.5\nsquared_error = 3624421629.936\nsamples = 33\nvalue = 529239.394", fillcolor="#e99355"] ;
568 -> 569 ;
570 [label="location.longitude <= -0.198\nsquared_error = 3640761082.045\nsamples = 29\nvalue = 522067.241", fillcolor="#e99458"] ;
569 -> 570 ;
571 [label="squared_error = 0.0\nsamples = 1\nvalue = 425000.0", fillcolor="#eead7e"] ;
570 -> 571 ;
572 [label="location.longitude <= -0.133\nsquared_error = 3422268580.995\nsamples = 28\nvalue = 525533.929", fillcolor="#e99456"] ;
570 -> 572 ;
573 [label="squared_error = 2239357381.853\nsamples = 23\nvalue = 533910.87", fillcolor="#e89253"] ;
572 -> 573 ;
574 [label="squared_error = 7056000000.0\nsamples = 5\nvalue = 487000.0", fillcolor="#eb9d65"] ;
572 -> 574 ;
575 [label="distance_to_any_train <= 0.15\nsquared_error = 429219218.75\nsamples = 4\nvalue = 581237.5", fillcolor="#e68640"] ;
569 -> 575 ;
576 [label="location.latitude <= 51.492\nsquared_error = 156250000.0\nsamples = 2\nvalue = 562500.0", fillcolor="#e78a48"] ;
575 -> 576 ;
577 [label="squared_error = 0.0\nsamples = 1\nvalue = 575000.0", fillcolor="#e68743"] ;
576 -> 577 ;
578 [label="squared_error = 0.0\nsamples = 1\nvalue = 550000.0", fillcolor="#e88d4d"] ;
576 -> 578 ;
579 [label="propertySubType_Apartment <= 0.5\nsquared_error = 625.0\nsamples = 2\nvalue = 599975.0", fillcolor="#e58139"] ;
575 -> 579 ;
580 [label="squared_error = 0.0\nsamples = 1\nvalue = 600000.0", fillcolor="#e58139"] ;
579 -> 580 ;
581 [label="squared_error = 0.0\nsamples = 1\nvalue = 599950.0", fillcolor="#e58139"] ;
579 -> 581 ;
582 [label="location.latitude <= 51.494\nsquared_error = 10409555555.556\nsamples = 15\nvalue = 487666.667", fillcolor="#eb9d65"] ;
568 -> 582 ;
583 [label="analyticsProperty.added <= 20215315.0\nsquared_error = 10297959183.673\nsamples = 7\nvalue = 433571.429", fillcolor="#eeab7a"] ;
582 -> 583 ;
584 [label="analyticsProperty.added <= 20200723.0\nsquared_error = 16250000000.0\nsamples = 3\nvalue = 375000.0", fillcolor="#f1b991"] ;
583 -> 584 ;
585 [label="squared_error = 22500000000.0\nsamples = 2\nvalue = 400000.0", fillcolor="#efb388"] ;
584 -> 585 ;
586 [label="squared_error = 0.0\nsamples = 1\nvalue = 325000.0", fillcolor="#f3c6a5"] ;
584 -> 586 ;
587 [label="analyticsProperty.added <= 20220327.0\nsquared_error = 1331250000.0\nsamples = 4\nvalue = 477500.0", fillcolor="#eba069"] ;
583 -> 587 ;
588 [label="squared_error = 156250000.0\nsamples = 2\nvalue = 512500.0", fillcolor="#ea975b"] ;
587 -> 588 ;
589 [label="squared_error = 56250000.0\nsamples = 2\nvalue = 442500.0", fillcolor="#eda877"] ;
587 -> 589 ;
590 [label="distance_to_any_train <= 0.15\nsquared_error = 5706250000.0\nsamples = 8\nvalue = 535000.0", fillcolor="#e89153"] ;
582 -> 590 ;
591 [label="squared_error = 0.0\nsamples = 1\nvalue = 350000.0", fillcolor="#f2bf9b"] ;
590 -> 591 ;
592 [label="location.longitude <= -0.191\nsquared_error = 933673469.388\nsamples = 7\nvalue = 561428.571", fillcolor="#e78b48"] ;
590 -> 592 ;
593 [label="squared_error = 0.0\nsamples = 1\nvalue = 500000.0", fillcolor="#ea9a60"] ;
592 -> 593 ;
594 [label="squared_error = 355555555.556\nsamples = 6\nvalue = 571666.667", fillcolor="#e68844"] ;
592 -> 594 ;
595 [label="analyticsProperty.imageCount <= 5.5\nsquared_error = 1765201735.537\nsamples = 22\nvalue = 553990.909", fillcolor="#e78c4b"] ;
557 -> 595 ;
596 [label="squared_error = 0.0\nsamples = 1\nvalue = 450000.0", fillcolor="#eda674"] ;
595 -> 596 ;
597 [label="propertySubType_Maisonette <= 0.5\nsquared_error = 1309779591.837\nsamples = 21\nvalue = 558942.857", fillcolor="#e78b49"] ;
595 -> 597 ;
598 [label="analyticsProperty.added <= 20220306.0\nsquared_error = 1005332400.0\nsamples = 20\nvalue = 563140.0", fillcolor="#e78a47"] ;
597 -> 598 ;
599 [label="location.longitude <= -0.144\nsquared_error = 744194488.889\nsamples = 15\nvalue = 569186.667", fillcolor="#e78945"] ;
598 -> 599 ;
600 [label="location.latitude <= 51.489\nsquared_error = 176388571.429\nsamples = 7\nvalue = 590400.0", fillcolor="#e5833d"] ;
599 -> 600 ;
601 [label="squared_error = 0.0\nsamples = 1\nvalue = 565000.0", fillcolor="#e78a47"] ;
600 -> 601 ;
602 [label="squared_error = 80338888.889\nsamples = 6\nvalue = 594633.333", fillcolor="#e5823b"] ;
600 -> 602 ;
603 [label="location.longitude <= -0.137\nsquared_error = 502734375.0\nsamples = 8\nvalue = 550625.0", fillcolor="#e88d4c"] ;
599 -> 603 ;
604 [label="squared_error = 150000000.0\nsamples = 5\nvalue = 535000.0", fillcolor="#e89153"] ;
603 -> 604 ;
605 [label="squared_error = 5555555.556\nsamples = 3\nvalue = 576666.667", fillcolor="#e68742"] ;
603 -> 605 ;
606 [label="propertySubType_Apartment <= 0.5\nsquared_error = 1350000000.0\nsamples = 5\nvalue = 545000.0", fillcolor="#e88f4f"] ;
598 -> 606 ;
607 [label="analyticsProperty.added <= 20220662.0\nsquared_error = 742187500.0\nsamples = 4\nvalue = 531250.0", fillcolor="#e99254"] ;
606 -> 607 ;
608 [label="squared_error = 138888888.889\nsamples = 3\nvalue = 516666.667", fillcolor="#e9965a"] ;
607 -> 608 ;
609 [label="squared_error = 0.0\nsamples = 1\nvalue = 575000.0", fillcolor="#e68743"] ;
607 -> 609 ;
610 [label="squared_error = 0.0\nsamples = 1\nvalue = 600000.0", fillcolor="#e58139"] ;
606 -> 610 ;
611 [label="squared_error = 0.0\nsamples = 1\nvalue = 475000.0", fillcolor="#eba06a"] ;
597 -> 611 ;
612 [label="location.longitude <= -0.215\nsquared_error = 9702754520.286\nsamples = 864\nvalue = 419968.369", fillcolor="#eeae80"] ;
2 -> 612 ;
613 [label="location.longitude <= -0.32\nsquared_error = 6955497573.088\nsamples = 558\nvalue = 387671.733", fillcolor="#f0b68c"] ;
612 -> 613 ;
614 [label="bathrooms_model <= 1.5\nsquared_error = 5936814041.999\nsamples = 81\nvalue = 341224.975", fillcolor="#f2c29f"] ;
613 -> 614 ;
615 [label="analyticsProperty.added <= 20195414.0\nsquared_error = 5479275158.036\nsamples = 80\nvalue = 343787.162", fillcolor="#f2c19e"] ;
614 -> 615 ;
616 [label="squared_error = 0.0\nsamples = 1\nvalue = 147500.0", fillcolor="#fcf2eb"] ;
615 -> 616 ;
617 [label="location.latitude <= 51.506\nsquared_error = 5054755165.166\nsamples = 79\nvalue = 346271.81", fillcolor="#f2c09d"] ;
615 -> 617 ;
618 [label="analyticsProperty.added <= 20220522.0\nsquared_error = 1273062500.0\nsamples = 10\nvalue = 395250.0", fillcolor="#f0b489"] ;
617 -> 618 ;
619 [label="location.latitude <= 51.504\nsquared_error = 1264000000.0\nsamples = 5\nvalue = 374000.0", fillcolor="#f1b992"] ;
618 -> 619 ;
620 [label="analyticsProperty.imageCount <= 10.5\nsquared_error = 416666666.667\nsamples = 3\nvalue = 400000.0", fillcolor="#efb388"] ;
619 -> 620 ;
621 [label="squared_error = 0.0\nsamples = 1\nvalue = 375000.0", fillcolor="#f1b991"] ;
620 -> 621 ;
622 [label="analyticsProperty.added <= 20220406.0\nsquared_error = 156250000.0\nsamples = 2\nvalue = 412500.0", fillcolor="#efb083"] ;
620 -> 622 ;
623 [label="squared_error = 0.0\nsamples = 1\nvalue = 400000.0", fillcolor="#efb388"] ;
622 -> 623 ;
624 [label="squared_error = 0.0\nsamples = 1\nvalue = 425000.0", fillcolor="#eead7e"] ;
622 -> 624 ;
625 [label="squared_error = 0.0\nsamples = 2\nvalue = 335000.0", fillcolor="#f3c3a1"] ;
619 -> 625 ;
626 [label="floorplan_count <= 6.0\nsquared_error = 379000000.0\nsamples = 5\nvalue = 416500.0", fillcolor="#eeaf81"] ;
618 -> 626 ;
627 [label="location.latitude <= 51.506\nsquared_error = 123046875.0\nsamples = 4\nvalue = 408125.0", fillcolor="#efb184"] ;
626 -> 627 ;
628 [label="analyticsProperty.imageCount <= 14.5\nsquared_error = 87500000.0\nsamples = 3\nvalue = 412500.0", fillcolor="#efb083"] ;
627 -> 628 ;
629 [label="squared_error = 126562500.0\nsamples = 2\nvalue = 411250.0", fillcolor="#efb083"] ;
628 -> 629 ;
630 [label="squared_error = 0.0\nsamples = 1\nvalue = 415000.0", fillcolor="#efaf82"] ;
628 -> 630 ;
631 [label="squared_error = 0.0\nsamples = 1\nvalue = 395000.0", fillcolor="#f0b489"] ;
627 -> 631 ;
632 [label="squared_error = 0.0\nsamples = 1\nvalue = 450000.0", fillcolor="#eda674"] ;
626 -> 632 ;
633 [label="location.latitude <= 51.507\nsquared_error = 5204779551.467\nsamples = 69\nvalue = 339173.522", fillcolor="#f2c29f"] ;
617 -> 633 ;
634 [label="location.longitude <= -0.335\nsquared_error = 7593912400.0\nsamples = 5\nvalue = 253590.0", fillcolor="#f7d8c1"] ;
633 -> 634 ;
635 [label="analyticsProperty.imageCount <= 15.5\nsquared_error = 623750625.0\nsamples = 2\nvalue = 324975.0", fillcolor="#f3c6a5"] ;
634 -> 635 ;
636 [label="squared_error = 0.0\nsamples = 1\nvalue = 300000.0", fillcolor="#f4ccaf"] ;
635 -> 636 ;
637 [label="squared_error = 0.0\nsamples = 1\nvalue = 349950.0", fillcolor="#f2bf9b"] ;
635 -> 637 ;
638 [label="propertySubType_Flat <= 0.5\nsquared_error = 6578666666.667\nsamples = 3\nvalue = 206000.0", fillcolor="#f9e3d4"] ;
634 -> 638 ;
639 [label="squared_error = 0.0\nsamples = 1\nvalue = 138000.0", fillcolor="#fdf4ee"] ;
638 -> 639 ;
640 [label="analyticsProperty.added <= 20220368.0\nsquared_error = 6400000000.0\nsamples = 2\nvalue = 240000.0", fillcolor="#f8dbc6"] ;
638 -> 640 ;
641 [label="squared_error = 0.0\nsamples = 1\nvalue = 320000.0", fillcolor="#f3c7a7"] ;
640 -> 641 ;
642 [label="squared_error = 0.0\nsamples = 1\nvalue = 160000.0", fillcolor="#fcefe6"] ;
640 -> 642 ;
643 [label="analyticsProperty.added <= 20220114.0\nsquared_error = 4401193483.789\nsamples = 64\nvalue = 345859.734", fillcolor="#f2c09d"] ;
633 -> 643 ;
644 [label="location.latitude <= 51.523\nsquared_error = 5294297298.665\nsamples = 19\nvalue = 321277.579", fillcolor="#f3c7a6"] ;
643 -> 644 ;
645 [label="analyticsProperty.added <= 20210518.0\nsquared_error = 5444725798.34\nsamples = 16\nvalue = 332454.688", fillcolor="#f3c4a2"] ;
644 -> 645 ;
646 [label="squared_error = 2006469218.75\nsamples = 4\nvalue = 371237.5", fillcolor="#f1ba93"] ;
645 -> 646 ;
647 [label="squared_error = 5922319526.91\nsamples = 12\nvalue = 319527.083", fillcolor="#f3c7a7"] ;
645 -> 647 ;
648 [label="analyticsProperty.imageCount <= 6.5\nsquared_error = 272230000.222\nsamples = 3\nvalue = 261666.333", fillcolor="#f6d6be"] ;
644 -> 648 ;
649 [label="squared_error = 0.0\nsamples = 1\nvalue = 285000.0", fillcolor="#f5d0b5"] ;
648 -> 649 ;
650 [label="squared_error = 0.25\nsamples = 2\nvalue = 249999.5", fillcolor="#f7d8c2"] ;
648 -> 650 ;
651 [label="location.latitude <= 51.507\nsquared_error = 3661237376.071\nsamples = 45\nvalue = 356238.867", fillcolor="#f2be99"] ;
643 -> 651 ;
652 [label="distance_to_any_train <= 0.55\nsquared_error = 372222222.222\nsamples = 3\nvalue = 408333.333", fillcolor="#efb184"] ;
651 -> 652 ;
653 [label="squared_error = 0.0\nsamples = 1\nvalue = 435000.0", fillcolor="#eeaa7a"] ;
652 -> 653 ;
654 [label="squared_error = 25000000.0\nsamples = 2\nvalue = 395000.0", fillcolor="#f0b489"] ;
652 -> 654 ;
655 [label="floorplan_count <= 2.5\nsquared_error = 3688475693.901\nsamples = 42\nvalue = 352517.833", fillcolor="#f2bf9a"] ;
651 -> 655 ;
656 [label="squared_error = 56250000.0\nsamples = 2\nvalue = 417500.0", fillcolor="#eeaf81"] ;
655 -> 656 ;
657 [label="squared_error = 3648396174.399\nsamples = 40\nvalue = 349268.725", fillcolor="#f2c09b"] ;
655 -> 657 ;
658 [label="squared_error = 0.0\nsamples = 1\nvalue = 136250.0", fillcolor="#fdf5ef"] ;
614 -> 658 ;
659 [label="location.latitude <= 51.522\nsquared_error = 6699939694.914\nsamples = 477\nvalue = 395558.918", fillcolor="#f0b489"] ;
613 -> 659 ;
660 [label="location.latitude <= 51.513\nsquared_error = 6369065431.446\nsamples = 443\nvalue = 400559.941", fillcolor="#efb387"] ;
659 -> 660 ;
661 [label="tenure.tenureType_LEASEHOLD <= 0.5\nsquared_error = 5343986895.887\nsamples = 336\nvalue = 390791.988", fillcolor="#f0b58b"] ;
660 -> 661 ;
662 [label="location.latitude <= 51.48\nsquared_error = 3797578424.01\nsamples = 100\nvalue = 422762.49", fillcolor="#eead7f"] ;
661 -> 662 ;
663 [label="location.latitude <= 51.48\nsquared_error = 100000000.0\nsamples = 2\nvalue = 585000.0", fillcolor="#e6853f"] ;
662 -> 663 ;
664 [label="squared_error = 0.0\nsamples = 1\nvalue = 575000.0", fillcolor="#e68743"] ;
663 -> 664 ;
665 [label="squared_error = 0.0\nsamples = 1\nvalue = 595000.0", fillcolor="#e5823b"] ;
663 -> 665 ;
666 [label="borough_name_Hammersmith and Fulham <= 0.5\nsquared_error = 3324913226.27\nsamples = 98\nvalue = 419451.52", fillcolor="#eeae80"] ;
662 -> 666 ;
667 [label="analyticsProperty.propertyType_Not Specified <= 0.5\nsquared_error = 3190689967.516\nsamples = 60\nvalue = 405274.983", fillcolor="#efb285"] ;
666 -> 667 ;
668 [label="analyticsProperty.imageCount <= 17.5\nsquared_error = 2748246942.849\nsamples = 59\nvalue = 402398.288", fillcolor="#efb287"] ;
667 -> 668 ;
669 [label="squared_error = 2565086302.88\nsamples = 57\nvalue = 399324.544", fillcolor="#efb388"] ;
668 -> 669 ;
670 [label="squared_error = 25000000.0\nsamples = 2\nvalue = 490000.0", fillcolor="#eb9c64"] ;
668 -> 670 ;
671 [label="squared_error = 0.0\nsamples = 1\nvalue = 575000.0", fillcolor="#e68743"] ;
667 -> 671 ;
672 [label="location.longitude <= -0.224\nsquared_error = 2718473277.355\nsamples = 38\nvalue = 441835.526", fillcolor="#eda977"] ;
666 -> 672 ;
673 [label="location.longitude <= -0.228\nsquared_error = 1451333524.306\nsamples = 24\nvalue = 456870.833", fillcolor="#eca571"] ;
672 -> 673 ;
674 [label="squared_error = 1455938868.75\nsamples = 20\nvalue = 450247.5", fillcolor="#eda674"] ;
673 -> 674 ;
675 [label="squared_error = 112250468.75\nsamples = 4\nvalue = 489987.5", fillcolor="#eb9c64"] ;
673 -> 675 ;
676 [label="location.latitude <= 51.503\nsquared_error = 3838839706.633\nsamples = 14\nvalue = 416060.714", fillcolor="#eeaf81"] ;
672 -> 676 ;
677 [label="squared_error = 2808863842.975\nsamples = 11\nvalue = 394995.455", fillcolor="#f0b489"] ;
676 -> 677 ;
678 [label="squared_error = 22445000.0\nsamples = 3\nvalue = 493300.0", fillcolor="#eb9c63"] ;
676 -> 678 ;
679 [label="propertySubType_Flat <= 0.5\nsquared_error = 5382629588.426\nsamples = 236\nvalue = 377245.165", fillcolor="#f0b990"] ;
661 -> 679 ;
680 [label="analyticsProperty.imageCount <= 7.5\nsquared_error = 5489695211.556\nsamples = 75\nvalue = 400578.667", fillcolor="#efb387"] ;
679 -> 680 ;
681 [label="location.longitude <= -0.248\nsquared_error = 5154650442.248\nsamples = 31\nvalue = 372256.452", fillcolor="#f1ba92"] ;
680 -> 681 ;
682 [label="analyticsProperty.imageCount <= 5.5\nsquared_error = 3026481612.654\nsamples = 18\nvalue = 338886.111", fillcolor="#f2c2a0"] ;
681 -> 682 ;
683 [label="squared_error = 5555555.556\nsamples = 3\nvalue = 301666.667", fillcolor="#f4ccae"] ;
682 -> 683 ;
684 [label="squared_error = 3298197933.333\nsamples = 15\nvalue = 346330.0", fillcolor="#f2c09d"] ;
682 -> 684 ;
685 [label="location.longitude <= -0.244\nsquared_error = 4424556213.018\nsamples = 13\nvalue = 418461.538", fillcolor="#eeae80"] ;
681 -> 685 ;
686 [label="squared_error = 6250000.0\nsamples = 2\nvalue = 497500.0", fillcolor="#ea9b61"] ;
685 -> 686 ;
687 [label="squared_error = 3885537190.083\nsamples = 11\nvalue = 404090.909", fillcolor="#efb286"] ;
685 -> 687 ;
688 [label="analyticsProperty.added <= 20210513.0\nsquared_error = 4762426243.543\nsamples = 44\nvalue = 420532.955", fillcolor="#eeae7f"] ;
680 -> 688 ;
689 [label="analyticsProperty.imageCount <= 11.5\nsquared_error = 156250000.0\nsamples = 2\nvalue = 537500.0", fillcolor="#e89152"] ;
688 -> 689 ;
690 [label="squared_error = 0.0\nsamples = 1\nvalue = 550000.0", fillcolor="#e88d4d"] ;
689 -> 690 ;
691 [label="squared_error = 0.0\nsamples = 1\nvalue = 525000.0", fillcolor="#e99456"] ;
689 -> 691 ;
692 [label="analyticsProperty.added <= 20220114.0\nsquared_error = 4299254649.943\nsamples = 42\nvalue = 414963.095", fillcolor="#efaf82"] ;
688 -> 692 ;
693 [label="squared_error = 3417283950.617\nsamples = 9\nvalue = 357222.222", fillcolor="#f2be98"] ;
692 -> 693 ;
694 [label="squared_error = 3382532993.572\nsamples = 33\nvalue = 430710.606", fillcolor="#eeab7b"] ;
692 -> 694 ;
695 [label="analyticsProperty.added <= 20220412.0\nsquared_error = 4960978305.691\nsamples = 161\nvalue = 366375.522", fillcolor="#f1bb95"] ;
679 -> 695 ;
696 [label="analyticsProperty.imageCount <= 2.0\nsquared_error = 3535858601.622\nsamples = 87\nvalue = 351358.414", fillcolor="#f2bf9b"] ;
695 -> 696 ;
697 [label="squared_error = 0.0\nsamples = 1\nvalue = 162500.0", fillcolor="#fceee5"] ;
696 -> 697 ;
698 [label="analyticsProperty.imageCount <= 25.5\nsquared_error = 3157412319.805\nsamples = 86\nvalue = 353554.442", fillcolor="#f2bf9a"] ;
696 -> 698 ;
699 [label="squared_error = 2855982349.132\nsamples = 85\nvalue = 355538.612", fillcolor="#f2be99"] ;
698 -> 699 ;
700 [label="squared_error = 0.0\nsamples = 1\nvalue = 184900.0", fillcolor="#fae9dc"] ;
698 -> 700 ;
701 [label="location.latitude <= 51.489\nsquared_error = 6059618302.988\nsamples = 74\nvalue = 384030.77", fillcolor="#f0b78e"] ;
695 -> 701 ;
702 [label="analyticsProperty.imageCount <= 7.5\nsquared_error = 16646556090.75\nsamples = 4\nvalue = 320994.5", fillcolor="#f3c7a7"] ;
701 -> 702 ;
703 [label="squared_error = 12656250000.0\nsamples = 2\nvalue = 422500.0", fillcolor="#eead7f"] ;
702 -> 703 ;
704 [label="squared_error = 30129121.0\nsamples = 2\nvalue = 219489.0", fillcolor="#f9e0ce"] ;
702 -> 704 ;
705 [label="analyticsProperty.added <= 20220607.0\nsquared_error = 5214614281.361\nsamples = 70\nvalue = 387632.843", fillcolor="#f0b68c"] ;
701 -> 705 ;
706 [label="squared_error = 4251105316.964\nsamples = 44\nvalue = 373790.886", fillcolor="#f1ba92"] ;
705 -> 706 ;
707 [label="squared_error = 5972198594.675\nsamples = 26\nvalue = 411057.692", fillcolor="#efb083"] ;
705 -> 707 ;
708 [label="location.latitude <= 51.522\nsquared_error = 8347544135.616\nsamples = 107\nvalue = 431233.14", fillcolor="#eeab7b"] ;
660 -> 708 ;
709 [label="location.longitude <= -0.306\nsquared_error = 8117977244.791\nsamples = 101\nvalue = 425177.683", fillcolor="#eead7e"] ;
708 -> 709 ;
710 [label="propertySubType_Flat <= 0.5\nsquared_error = 3669508564.518\nsamples = 25\nvalue = 465194.04", fillcolor="#eca36e"] ;
709 -> 710 ;
711 [label="distance_to_any_train <= 0.25\nsquared_error = 1933405785.238\nsamples = 18\nvalue = 489105.611", fillcolor="#eb9d65"] ;
710 -> 711 ;
712 [label="location.longitude <= -0.307\nsquared_error = 1444250656.889\nsamples = 9\nvalue = 512105.667", fillcolor="#ea975c"] ;
711 -> 712 ;
713 [label="squared_error = 280625644.667\nsamples = 3\nvalue = 551317.0", fillcolor="#e88d4c"] ;
712 -> 713 ;
714 [label="squared_error = 872916666.667\nsamples = 6\nvalue = 492500.0", fillcolor="#eb9c63"] ;
712 -> 714 ;
715 [label="analyticsProperty.added <= 20210511.0\nsquared_error = 1364555802.469\nsamples = 9\nvalue = 466105.556", fillcolor="#eca26e"] ;
711 -> 715 ;
716 [label="squared_error = 754875625.0\nsamples = 2\nvalue = 517475.0", fillcolor="#e99659"] ;
715 -> 716 ;
717 [label="squared_error = 569387755.102\nsamples = 7\nvalue = 451428.571", fillcolor="#eda673"] ;
715 -> 717 ;
718 [label="location.longitude <= -0.313\nsquared_error = 2882886020.408\nsamples = 7\nvalue = 403707.143", fillcolor="#efb286"] ;
710 -> 718 ;
719 [label="analyticsProperty.added <= 20215616.0\nsquared_error = 730350625.0\nsamples = 2\nvalue = 322975.0", fillcolor="#f3c6a6"] ;
718 -> 719 ;
720 [label="squared_error = 0.0\nsamples = 1\nvalue = 350000.0", fillcolor="#f2bf9b"] ;
719 -> 720 ;
721 [label="squared_error = 0.0\nsamples = 1\nvalue = 295950.0", fillcolor="#f5cdb0"] ;
719 -> 721 ;
722 [label="analyticsProperty.added <= 20220555.0\nsquared_error = 94000000.0\nsamples = 5\nvalue = 436000.0", fillcolor="#edaa79"] ;
718 -> 722 ;
723 [label="squared_error = 22222222.222\nsamples = 3\nvalue = 443333.333", fillcolor="#eda877"] ;
722 -> 723 ;
724 [label="squared_error = 0.0\nsamples = 2\nvalue = 425000.0", fillcolor="#eead7e"] ;
722 -> 724 ;
725 [label="analyticsProperty.added <= 20210311.0\nsquared_error = 8881271174.32\nsamples = 76\nvalue = 412014.408", fillcolor="#efb083"] ;
709 -> 725 ;
726 [label="squared_error = 0.0\nsamples = 1\nvalue = 114000.0", fillcolor="#fefaf8"] ;
725 -> 726 ;
727 [label="location.longitude <= -0.224\nsquared_error = 7799731388.062\nsamples = 75\nvalue = 415987.933", fillcolor="#eeaf81"] ;
725 -> 727 ;
728 [label="location.latitude <= 51.514\nsquared_error = 7294818025.763\nsamples = 67\nvalue = 406404.403", fillcolor="#efb185"] ;
727 -> 728 ;
729 [label="squared_error = 6989598553.85\nsamples = 31\nvalue = 438546.613", fillcolor="#eda978"] ;
728 -> 729 ;
730 [label="squared_error = 5901940900.849\nsamples = 36\nvalue = 378726.389", fillcolor="#f0b890"] ;
728 -> 730 ;
731 [label="distance_to_any_train <= 0.25\nsquared_error = 4817187500.0\nsamples = 8\nvalue = 496250.0", fillcolor="#ea9b62"] ;
727 -> 731 ;
732 [label="squared_error = 2656250000.0\nsamples = 4\nvalue = 437500.0", fillcolor="#edaa79"] ;
731 -> 732 ;
733 [label="squared_error = 75000000.0\nsamples = 4\nvalue = 555000.0", fillcolor="#e78c4b"] ;
731 -> 733 ;
734 [label="analyticsProperty.added <= 20220476.0\nsquared_error = 1204222222.222\nsamples = 6\nvalue = 533166.667", fillcolor="#e89253"] ;
708 -> 734 ;
735 [label="analyticsProperty.imageCount <= 10.0\nsquared_error = 152546875.0\nsamples = 4\nvalue = 509875.0", fillcolor="#ea985c"] ;
734 -> 735 ;
736 [label="analyticsProperty.added <= 20210318.0\nsquared_error = 100000000.0\nsamples = 2\nvalue = 520000.0", fillcolor="#e99558"] ;
735 -> 736 ;
737 [label="squared_error = 0.0\nsamples = 1\nvalue = 510000.0", fillcolor="#ea975c"] ;
736 -> 737 ;
738 [label="squared_error = 0.0\nsamples = 1\nvalue = 530000.0", fillcolor="#e99254"] ;
736 -> 738 ;
739 [label="analyticsProperty.added <= 20215624.0\nsquared_error = 62500.0\nsamples = 2\nvalue = 499750.0", fillcolor="#ea9a60"] ;
735 -> 739 ;
740 [label="squared_error = 0.0\nsamples = 1\nvalue = 500000.0", fillcolor="#ea9a60"] ;
739 -> 740 ;
741 [label="squared_error = 0.0\nsamples = 1\nvalue = 499500.0", fillcolor="#ea9a60"] ;
739 -> 741 ;
742 [label="propertySubType_Apartment <= 0.5\nsquared_error = 52562500.0\nsamples = 2\nvalue = 579750.0", fillcolor="#e68641"] ;
734 -> 742 ;
743 [label="squared_error = 0.0\nsamples = 1\nvalue = 587000.0", fillcolor="#e6843e"] ;
742 -> 743 ;
744 [label="squared_error = 0.0\nsamples = 1\nvalue = 572500.0", fillcolor="#e68844"] ;
742 -> 744 ;
745 [label="location.latitude <= 51.523\nsquared_error = 6439291836.073\nsamples = 34\nvalue = 330398.529", fillcolor="#f3c4a3"] ;
659 -> 745 ;
746 [label="analyticsProperty.imageCount <= 8.5\nsquared_error = 9219494008.264\nsamples = 11\nvalue = 265790.909", fillcolor="#f6d4bc"] ;
745 -> 746 ;
747 [label="analyticsProperty.added <= 20220518.0\nsquared_error = 1121958680.556\nsamples = 6\nvalue = 322491.667", fillcolor="#f3c6a6"] ;
746 -> 747 ;
748 [label="analyticsProperty.added <= 20210380.0\nsquared_error = 554000000.0\nsamples = 5\nvalue = 311000.0", fillcolor="#f4c9aa"] ;
747 -> 748 ;
749 [label="squared_error = 0.0\nsamples = 1\nvalue = 350000.0", fillcolor="#f2bf9b"] ;
748 -> 749 ;
750 [label="analyticsProperty.added <= 20220274.0\nsquared_error = 217187500.0\nsamples = 4\nvalue = 301250.0", fillcolor="#f4ccae"] ;
748 -> 750 ;
751 [label="location.longitude <= -0.26\nsquared_error = 38888888.889\nsamples = 3\nvalue = 293333.333", fillcolor="#f5ceb1"] ;
750 -> 751 ;
752 [label="squared_error = 6250000.0\nsamples = 2\nvalue = 297500.0", fillcolor="#f5cdb0"] ;
751 -> 752 ;
753 [label="squared_error = 0.0\nsamples = 1\nvalue = 285000.0", fillcolor="#f5d0b5"] ;
751 -> 753 ;
754 [label="squared_error = 0.0\nsamples = 1\nvalue = 325000.0", fillcolor="#f3c6a5"] ;
750 -> 754 ;
755 [label="squared_error = 0.0\nsamples = 1\nvalue = 379950.0", fillcolor="#f0b88f"] ;
747 -> 755 ;
756 [label="propertySubType_Apartment <= 0.5\nsquared_error = 10449000000.0\nsamples = 5\nvalue = 197750.0", fillcolor="#fae5d7"] ;
746 -> 756 ;
757 [label="analyticsProperty.imageCount <= 15.5\nsquared_error = 8238888888.889\nsamples = 3\nvalue = 258333.333", fillcolor="#f7d6bf"] ;
756 -> 757 ;
758 [label="analyticsProperty.imageCount <= 13.5\nsquared_error = 9025000000.0\nsamples = 2\nvalue = 225000.0", fillcolor="#f8dfcc"] ;
757 -> 758 ;
759 [label="squared_error = 0.0\nsamples = 1\nvalue = 320000.0", fillcolor="#f3c7a7"] ;
758 -> 759 ;
760 [label="squared_error = 0.0\nsamples = 1\nvalue = 130000.0", fillcolor="#fdf6f2"] ;
758 -> 760 ;
761 [label="squared_error = 0.0\nsamples = 1\nvalue = 325000.0", fillcolor="#f3c6a5"] ;
757 -> 761 ;
762 [label="analyticsProperty.imageCount <= 9.5\nsquared_error = 390625.0\nsamples = 2\nvalue = 106875.0", fillcolor="#fefcfb"] ;
756 -> 762 ;
763 [label="squared_error = 0.0\nsamples = 1\nvalue = 106250.0", fillcolor="#fefcfb"] ;
762 -> 763 ;
764 [label="squared_error = 0.0\nsamples = 1\nvalue = 107500.0", fillcolor="#fefcfa"] ;
762 -> 764 ;
765 [label="distance_to_any_train <= 0.35\nsquared_error = 2158533364.839\nsamples = 23\nvalue = 361297.826", fillcolor="#f1bd97"] ;
745 -> 765 ;
766 [label="analyticsProperty.imageCount <= 10.5\nsquared_error = 346913580.247\nsamples = 9\nvalue = 319444.444", fillcolor="#f3c7a7"] ;
765 -> 766 ;
767 [label="distance_to_any_train <= 0.25\nsquared_error = 103061224.49\nsamples = 7\nvalue = 310714.286", fillcolor="#f4c9ab"] ;
766 -> 767 ;
768 [label="analyticsProperty.imageCount <= 6.5\nsquared_error = 18750000.0\nsamples = 4\nvalue = 302500.0", fillcolor="#f4cbae"] ;
767 -> 768 ;
769 [label="squared_error = 0.0\nsamples = 1\nvalue = 310000.0", fillcolor="#f4c9ab"] ;
768 -> 769 ;
770 [label="squared_error = 0.0\nsamples = 3\nvalue = 300000.0", fillcolor="#f4ccaf"] ;
768 -> 770 ;
771 [label="analyticsProperty.added <= 20220558.0\nsquared_error = 5555555.556\nsamples = 3\nvalue = 321666.667", fillcolor="#f3c7a6"] ;
767 -> 771 ;
772 [label="squared_error = 0.0\nsamples = 2\nvalue = 320000.0", fillcolor="#f3c7a7"] ;
771 -> 772 ;
773 [label="squared_error = 0.0\nsamples = 1\nvalue = 325000.0", fillcolor="#f3c6a5"] ;
771 -> 773 ;
774 [label="squared_error = 0.0\nsamples = 2\nvalue = 350000.0", fillcolor="#f2bf9b"] ;
766 -> 774 ;
775 [label="analyticsProperty.imageCount <= 4.5\nsquared_error = 1473130522.959\nsamples = 14\nvalue = 388203.571", fillcolor="#f0b68c"] ;
765 -> 775 ;
776 [label="analyticsProperty.imageCount <= 3.5\nsquared_error = 225000000.0\nsamples = 2\nvalue = 325000.0", fillcolor="#f3c6a5"] ;
775 -> 776 ;
777 [label="squared_error = 0.0\nsamples = 1\nvalue = 310000.0", fillcolor="#f4c9ab"] ;
776 -> 777 ;
778 [label="squared_error = 0.0\nsamples = 1\nvalue = 340000.0", fillcolor="#f2c29f"] ;
776 -> 778 ;
779 [label="location.latitude <= 51.525\nsquared_error = 904406718.75\nsamples = 12\nvalue = 398737.5", fillcolor="#efb388"] ;
775 -> 779 ;
780 [label="location.longitude <= -0.316\nsquared_error = 345138888.889\nsamples = 6\nvalue = 375833.333", fillcolor="#f1b991"] ;
779 -> 780 ;
781 [label="squared_error = 0.0\nsamples = 1\nvalue = 340000.0", fillcolor="#f2c29f"] ;
780 -> 781 ;
782 [label="tenure.tenureType_LEASEHOLD <= 0.5\nsquared_error = 106000000.0\nsamples = 5\nvalue = 383000.0", fillcolor="#f0b78e"] ;
780 -> 782 ;
783 [label="squared_error = 0.0\nsamples = 1\nvalue = 400000.0", fillcolor="#efb388"] ;
782 -> 783 ;
784 [label="squared_error = 42187500.0\nsamples = 4\nvalue = 378750.0", fillcolor="#f0b890"] ;
782 -> 784 ;
785 [label="analyticsProperty.imageCount <= 9.5\nsquared_error = 414472847.222\nsamples = 6\nvalue = 421641.667", fillcolor="#eeae7f"] ;
779 -> 785 ;
786 [label="location.longitude <= -0.31\nsquared_error = 18562968.75\nsamples = 4\nvalue = 407462.5", fillcolor="#efb185"] ;
785 -> 786 ;
787 [label="squared_error = 0.0\nsamples = 1\nvalue = 400000.0", fillcolor="#efb388"] ;
786 -> 787 ;
788 [label="squared_error = 0.0\nsamples = 3\nvalue = 409950.0", fillcolor="#efb084"] ;
786 -> 788 ;
789 [label="squared_error = 0.0\nsamples = 2\nvalue = 450000.0", fillcolor="#eda674"] ;
785 -> 789 ;
790 [label="propertySubType_Hotel Room <= 0.5\nsquared_error = 9341897133.716\nsamples = 306\nvalue = 478862.235", fillcolor="#eb9f69"] ;
612 -> 790 ;
791 [label="floorplan_count <= 2.5\nsquared_error = 8050890458.529\nsamples = 299\nvalue = 484735.264", fillcolor="#eb9e66"] ;
790 -> 791 ;
792 [label="distance_to_any_train <= 0.25\nsquared_error = 355555555.556\nsamples = 3\nvalue = 213333.333", fillcolor="#f9e2d1"] ;
791 -> 792 ;
